Experiment	bias spectroscopy	
Date	18.03.2025 23:06:39	
User		
X (m)	-15.1441E-9	
Y (m)	-63.2198E-9	
Z (m)	-36.6943E-9	
Z offset (m)	0E+0	
Settling time (s)	3E-3	
Integration time (s)	30E-3	
Z-Ctrl hold	TRUE	
Final Z (m)	N/A	
Filter type	None	
Order		
Cutoff frq		
Bias>Bias (V)	50E-3	
Bias>Calibration (V/V)	1E+0	
Bias>Offset (V)	0E+0	
Bias Spectroscopy>Sweep Start (V)	50E-3	
Bias Spectroscopy>Sweep End (V)	-50E-3	
Bias Spectroscopy>Num Pixel	401	
Bias Spectroscopy>Z Avg time (s)	50E-3	
Bias Spectroscopy>Z offset (m)	0E+0	
Bias Spectroscopy>1st Settling time (s)	100E-3	
Bias Spectroscopy>Settling time (s)	3E-3	
Bias Spectroscopy>Integration time (s)	30E-3	
Bias Spectroscopy>End Settling time (s)	100E-3	
Bias Spectroscopy>Z control time (s)	200E-3	
Bias Spectroscopy>Max Slew rate (V/s)	Inf	
Bias Spectroscopy>backward sweep	TRUE	
Bias Spectroscopy>Z-controller hold	TRUE	
Bias Spectroscopy>Number of sweeps	4	
Bias Spectroscopy>Channels	Current (A);Bias(AI5) (V);7280DSP Lockin-X (%);7280DSP Lockin-Y (%);LIR 1 omega (A);LIY 1 omega (A)	
Bias Spectroscopy>Reset Bias	TRUE	
Bias Spectroscopy>Record final Z	FALSE	
Bias Spectroscopy>Lock-In run	FALSE	
Bias Spectroscopy>Sweep mode	Linear	
Bias Spectroscopy>MultiLine Settings : Segment Start (V), Segment End (V), Settling (s), Integration (s), Steps (xn)	2E-3,0E+0,5E-3,50E-3,2;0E+0,-800E-6,5E-3,50E-3,2;-800E-6,-1.2E-3,5E-3,50E-3,2;-1.2E-3,-1.7E-3,5E-3,50E-3,2;-1.7E-3,-2.5E-3,5E-3,50E-3,2;-2.5E-3,-4E-3,5E-3,50E-3,2	
Current>Current (A)	300.039E-12	
Current>Calibration (A/V)	999.99900E-12	
Current>Offset (A)	373.9E-15	
Current>Gain	LN 10^9	
Ext. VI 1>Sample	Si(111)-HIC-Pb	
Ext. VI 1>Tip	PtIr	
Ext. VI 1>Temperature	0.412 K	
Ext. VI 1>Field	0.00 T	
Ext. VI 1>Condition	17nA depoed for 3min40s
anneal ramp up to 300 twice.
	
Ext. VI 1>DSP7280>Amplitude	0.01000	
Ext. VI 1>DSP7280>Frequency	1373.00	
Ext. VI 1>DSP7280>Phase	125.04	
Ext. VI 1>DSP7280>Full Sensitivity Range	0.00100	
Ext. VI 1>DSP7280>Harmonics	1	
Ext. VI 1>NF3628>CHA MODE	THRU	
Ext. VI 1>NF3628>CHA FREQ	1373.00 Hz	
Ext. VI 1>NF3628>CHB MODE	THRU	
Ext. VI 1>NF3628>CHB FREQ	10000.00 Hz	
Lock-in>Lock-in status	OFF	
Lock-in>Modulated signal	Bias (V)	
Lock-in>Frequency (Hz)	973E+0	
Lock-in>Amplitude	10E-3	
Lock-in>Demodulated signal	Current (A)	
Lock-in>Harmonic	2	
Lock-in>Reference phase (deg)	146.976E+0	

[DATA]
Bias calc (V)	Current (A)	Bias(AI5) (V)	7280DSP Lockin-X (%)	7280DSP Lockin-Y (%)	LIR 1 omega (A)	LIY 1 omega (A)	Current [bwd] (A)	Bias(AI5) [bwd] (V)	7280DSP Lockin-X [bwd] (%)	7280DSP Lockin-Y [bwd] (%)	LIR 1 omega [bwd] (A)	LIY 1 omega [bwd] (A)
50.0000E-3	299.947E-12	51.4148E-3	-9.44163E+0	17.3297E+0	3.84035E-12	-195.743E-15	312.471E-12	51.4210E-3	-9.64462E+0	17.7439E+0	4.25425E-12	-31.0123E-15
49.7500E-3	298.633E-12	51.1678E-3	-8.96051E+0	17.1378E+0	3.94374E-12	31.2027E-15	310.811E-12	51.1732E-3	-9.34393E+0	17.6038E+0	4.15387E-12	-138.705E-15
49.5000E-3	297.055E-12	50.9291E-3	-9.14558E+0	16.8678E+0	3.92016E-12	-296.081E-15	309.305E-12	50.9251E-3	-9.32858E+0	17.7682E+0	3.82979E-12	-78.3723E-15
49.2500E-3	295.745E-12	50.6870E-3	-9.03838E+0	16.7823E+0	3.76197E-12	153.222E-15	307.700E-12	50.6835E-3	-9.55060E+0	17.8567E+0	3.97827E-12	136.041E-15
49.0000E-3	294.286E-12	50.4426E-3	-9.20104E+0	16.6367E+0	3.74638E-12	-66.5345E-15	306.187E-12	50.4349E-3	-9.58179E+0	17.9415E+0	3.89167E-12	81.5593E-15
48.7500E-3	293.070E-12	50.2206E-3	-9.35462E+0	17.3867E+0	3.90410E-12	4.34228E-15	304.659E-12	50.2166E-3	-9.20656E+0	18.1710E+0	4.08225E-12	22.6110E-15
48.5000E-3	291.811E-12	49.9685E-3	-9.24632E+0	17.0118E+0	3.93568E-12	150.641E-15	303.496E-12	49.9510E-3	-9.45995E+0	17.9228E+0	3.92865E-12	-274.705E-18
48.2500E-3	290.314E-12	49.7196E-3	-9.25843E+0	17.3885E+0	3.92118E-12	64.7311E-15	301.961E-12	49.7243E-3	-9.12337E+0	17.2840E+0	3.87596E-12	88.8107E-15
48.0000E-3	289.156E-12	49.4836E-3	-9.40003E+0	17.1314E+0	3.86780E-12	-97.6984E-15	300.456E-12	49.4749E-3	-9.08432E+0	17.6328E+0	3.96160E-12	225.642E-15
47.7500E-3	287.658E-12	49.2270E-3	-9.41561E+0	17.3791E+0	3.91040E-12	71.2306E-15	298.952E-12	49.2333E-3	-9.02764E+0	18.1669E+0	4.06794E-12	9.59371E-15
47.5000E-3	286.287E-12	48.9771E-3	-9.28929E+0	17.2060E+0	3.86110E-12	181.302E-15	297.567E-12	48.9818E-3	-9.57947E+0	17.9644E+0	3.97732E-12	-107.692E-15
47.2500E-3	284.805E-12	48.7407E-3	-9.24583E+0	16.8554E+0	3.73648E-12	-157.276E-15	296.437E-12	48.7374E-3	-9.43618E+0	17.5495E+0	3.84795E-12	-69.7105E-15
47.0000E-3	283.168E-12	48.4814E-3	-9.51475E+0	16.9367E+0	3.86706E-12	182.547E-15	294.580E-12	48.4924E-3	-9.38374E+0	18.1687E+0	4.00478E-12	145.607E-15
46.7500E-3	281.603E-12	48.2538E-3	-9.81155E+0	17.0429E+0	3.81483E-12	-152.060E-15	293.155E-12	48.2417E-3	-9.18530E+0	17.9700E+0	4.16002E-12	63.9244E-15
46.5000E-3	280.182E-12	47.9925E-3	-9.83795E+0	17.1467E+0	3.88092E-12	-34.4198E-15	291.870E-12	47.9926E-3	-9.89684E+0	18.5230E+0	4.38643E-12	-192.042E-15
46.2500E-3	279.131E-12	47.7780E-3	-9.30016E+0	17.3330E+0	3.86326E-12	-162.985E-15	290.304E-12	47.7690E-3	-9.58955E+0	17.8986E+0	4.17391E-12	118.925E-15
46.0000E-3	277.624E-12	47.5060E-3	-9.30620E+0	17.4004E+0	3.79282E-12	100.113E-15	289.077E-12	47.5099E-3	-9.30751E+0	17.9440E+0	4.20702E-12	-35.6911E-15
45.7500E-3	276.248E-12	47.2586E-3	-9.30869E+0	17.1331E+0	3.88959E-12	156.900E-15	287.415E-12	47.2437E-3	-9.37551E+0	18.4039E+0	4.09052E-12	295.270E-15
45.5000E-3	275.005E-12	46.9944E-3	-9.41942E+0	17.3981E+0	3.77227E-12	197.365E-15	285.777E-12	46.9989E-3	-9.58684E+0	18.2310E+0	4.10793E-12	-74.4598E-15
45.2500E-3	273.713E-12	46.7294E-3	-9.19114E+0	17.4610E+0	3.83215E-12	-235.537E-15	284.320E-12	46.7261E-3	-9.13201E+0	18.0007E+0	3.96949E-12	156.425E-15
45.0000E-3	272.358E-12	46.4796E-3	-9.25829E+0	17.4532E+0	3.73482E-12	52.0697E-15	282.787E-12	46.4770E-3	-9.49896E+0	18.0783E+0	3.99456E-12	105.859E-15
44.7500E-3	270.621E-12	46.2233E-3	-9.36657E+0	17.4822E+0	3.88527E-12	51.4826E-15	281.105E-12	46.2129E-3	-9.62422E+0	17.8189E+0	3.93358E-12	305.082E-15
44.5000E-3	269.472E-12	45.9784E-3	-8.94330E+0	17.7875E+0	3.88125E-12	233.269E-15	279.630E-12	45.9739E-3	-9.52593E+0	18.1503E+0	4.04957E-12	-166.789E-15
44.2500E-3	268.313E-12	45.7341E-3	-9.69906E+0	17.5606E+0	3.75631E-12	36.7018E-15	278.090E-12	45.7274E-3	-9.50414E+0	18.7978E+0	4.19283E-12	158.363E-15
44.0000E-3	266.748E-12	45.4867E-3	-9.25851E+0	17.7956E+0	3.77275E-12	-90.1844E-15	276.742E-12	45.4871E-3	-9.70143E+0	17.9003E+0	3.89690E-12	-157.182E-15
43.7500E-3	265.620E-12	45.2637E-3	-9.21790E+0	17.8282E+0	3.89745E-12	-223.524E-15	275.155E-12	45.2585E-3	-9.54893E+0	18.1007E+0	4.03674E-12	250.256E-15
43.5000E-3	263.464E-12	45.0006E-3	-9.25594E+0	17.1988E+0	3.79365E-12	204.311E-15	273.892E-12	44.9942E-3	-9.43793E+0	17.9568E+0	4.00204E-12	-13.3670E-15
43.2500E-3	262.102E-12	44.7512E-3	-9.63393E+0	17.4938E+0	3.88936E-12	209.420E-15	272.459E-12	44.7561E-3	-9.49621E+0	18.1255E+0	3.89577E-12	120.562E-15
43.0000E-3	260.757E-12	44.4954E-3	-9.60556E+0	17.6137E+0	3.62433E-12	-296.941E-15	270.908E-12	44.4980E-3	-9.35146E+0	18.2427E+0	4.12218E-12	-84.1368E-15
42.7500E-3	258.794E-12	44.2508E-3	-9.44702E+0	17.6085E+0	3.93255E-12	90.2122E-15	269.234E-12	44.2381E-3	-9.05987E+0	18.5488E+0	4.15153E-12	93.3118E-15
42.5000E-3	257.707E-12	44.0062E-3	-9.41970E+0	17.9562E+0	4.05297E-12	186.882E-15	267.836E-12	44.0141E-3	-8.99290E+0	18.3801E+0	4.08229E-12	-154.609E-15
42.2500E-3	256.491E-12	43.7601E-3	-9.57526E+0	17.9463E+0	3.96266E-12	74.5822E-15	266.272E-12	43.7584E-3	-9.47425E+0	18.2466E+0	4.03284E-12	-55.9940E-15
42.0000E-3	255.033E-12	43.5159E-3	-9.60278E+0	17.6266E+0	3.88415E-12	-71.4035E-15	264.723E-12	43.5202E-3	-9.43837E+0	18.7269E+0	4.10854E-12	-80.1164E-15
41.7500E-3	253.294E-12	43.2768E-3	-9.32128E+0	17.4457E+0	3.74230E-12	-40.8758E-15	263.214E-12	43.2717E-3	-9.00301E+0	18.3214E+0	4.03356E-12	191.477E-15
41.5000E-3	251.756E-12	43.0236E-3	-9.40377E+0	17.9624E+0	3.97218E-12	236.370E-15	261.935E-12	43.0292E-3	-9.29109E+0	18.3688E+0	4.07566E-12	91.5114E-15
41.2500E-3	250.482E-12	42.7914E-3	-9.29051E+0	17.8007E+0	3.91800E-12	-40.9123E-15	260.126E-12	42.7858E-3	-9.44731E+0	18.4952E+0	4.02794E-12	162.174E-15
41.0000E-3	249.147E-12	42.5410E-3	-9.45658E+0	17.8346E+0	3.84474E-12	261.752E-15	258.367E-12	42.5371E-3	-9.40443E+0	19.0093E+0	4.28020E-12	-48.1052E-15
40.7500E-3	247.877E-12	42.3023E-3	-9.59650E+0	17.8124E+0	3.93245E-12	40.5186E-15	257.228E-12	42.2953E-3	-9.14555E+0	18.8130E+0	4.16129E-12	-276.254E-15
40.5000E-3	246.434E-12	42.0238E-3	-9.21292E+0	17.4956E+0	3.87739E-12	-188.545E-15	255.744E-12	42.0298E-3	-9.89160E+0	18.4610E+0	4.17805E-12	92.3571E-15
40.2500E-3	244.950E-12	41.7664E-3	-8.86989E+0	17.8333E+0	4.00807E-12	-210.987E-15	254.337E-12	41.7720E-3	-9.34918E+0	18.5171E+0	4.02504E-12	466.421E-15
40.0000E-3	243.289E-12	41.5333E-3	-9.74718E+0	17.8201E+0	3.86307E-12	-139.161E-15	252.467E-12	41.5224E-3	-9.47033E+0	18.3443E+0	3.97868E-12	-32.9317E-15
39.7500E-3	241.718E-12	41.2719E-3	-9.23205E+0	17.6264E+0	3.79793E-12	-75.8134E-15	250.802E-12	41.2720E-3	-9.47152E+0	19.0955E+0	4.08098E-12	-54.3708E-15
39.5000E-3	240.708E-12	41.0444E-3	-9.08229E+0	17.6368E+0	3.93901E-12	275.726E-15	249.406E-12	41.0410E-3	-9.15779E+0	18.6181E+0	4.02977E-12	180.200E-15
39.2500E-3	238.884E-12	40.7856E-3	-9.33061E+0	17.8380E+0	3.81848E-12	236.468E-15	247.801E-12	40.7896E-3	-9.41475E+0	18.3453E+0	4.04181E-12	121.868E-15
39.0000E-3	237.721E-12	40.5841E-3	-9.73954E+0	18.0161E+0	3.90431E-12	-245.459E-15	246.723E-12	40.5789E-3	-9.46640E+0	18.2805E+0	3.93573E-12	-192.096E-15
38.7500E-3	235.920E-12	40.2735E-3	-9.60999E+0	18.2093E+0	4.01172E-12	49.7415E-15	244.720E-12	40.2792E-3	-9.35406E+0	18.7676E+0	4.04258E-12	40.3501E-15
38.5000E-3	234.331E-12	40.0547E-3	-9.84068E+0	18.0714E+0	3.99943E-12	204.131E-15	243.197E-12	40.0547E-3	-9.54435E+0	18.8376E+0	4.10645E-12	10.4715E-15
38.2500E-3	232.816E-12	39.8035E-3	-9.54119E+0	17.8516E+0	3.89005E-12	43.1209E-15	241.481E-12	39.8032E-3	-9.11011E+0	18.7324E+0	3.96919E-12	-127.006E-15
38.0000E-3	231.693E-12	39.5758E-3	-9.24893E+0	17.9480E+0	3.91692E-12	-115.839E-15	239.782E-12	39.5657E-3	-9.12785E+0	18.7464E+0	4.02722E-12	24.5552E-15
37.7500E-3	230.165E-12	39.3282E-3	-9.40012E+0	18.2327E+0	3.85985E-12	-155.099E-15	238.358E-12	39.3205E-3	-9.46674E+0	18.9498E+0	4.14611E-12	-129.084E-15
37.5000E-3	228.747E-12	39.0784E-3	-9.58986E+0	17.9729E+0	3.90657E-12	127.888E-15	237.428E-12	39.0850E-3	-9.32441E+0	18.7201E+0	3.93241E-12	52.3379E-15
37.2500E-3	227.155E-12	38.8405E-3	-9.13336E+0	18.0500E+0	4.01100E-12	-41.9891E-15	235.484E-12	38.8426E-3	-9.13440E+0	19.0642E+0	4.19145E-12	82.4917E-15
37.0000E-3	225.762E-12	38.6068E-3	-9.36015E+0	17.9190E+0	3.93845E-12	-22.4594E-15	233.921E-12	38.6026E-3	-9.22119E+0	19.0541E+0	4.16315E-12	-42.0481E-15
36.7500E-3	224.363E-12	38.3682E-3	-9.50616E+0	18.5968E+0	4.05022E-12	174.494E-15	232.381E-12	38.3687E-3	-9.19244E+0	18.8933E+0	4.23244E-12	113.711E-15
36.5000E-3	222.808E-12	38.1417E-3	-9.48500E+0	18.4447E+0	3.98911E-12	-6.67192E-15	230.987E-12	38.1403E-3	-9.19387E+0	18.7305E+0	4.05442E-12	9.37865E-15
36.2500E-3	221.165E-12	37.8991E-3	-9.45128E+0	18.3178E+0	3.92391E-12	40.1255E-15	229.202E-12	37.8938E-3	-9.68957E+0	18.7480E+0	4.19695E-12	60.8409E-15
36.0000E-3	219.421E-12	37.6461E-3	-9.43772E+0	18.6947E+0	4.14532E-12	62.1773E-15	227.540E-12	37.6466E-3	-8.98975E+0	18.8127E+0	4.02599E-12	96.1326E-15
35.7500E-3	218.302E-12	37.3942E-3	-9.33387E+0	18.1564E+0	3.85896E-12	-67.7958E-15	226.289E-12	37.3850E-3	-9.40307E+0	19.4166E+0	4.15859E-12	22.3232E-15
35.5000E-3	216.792E-12	37.1371E-3	-9.50767E+0	18.2832E+0	3.83823E-12	43.8320E-15	224.632E-12	37.1347E-3	-8.95597E+0	19.1755E+0	4.07992E-12	-35.5190E-15
35.2500E-3	215.442E-12	36.8882E-3	-10.0046E+0	18.3349E+0	3.93564E-12	21.4600E-15	222.858E-12	36.8800E-3	-8.65933E+0	19.1795E+0	3.94082E-12	-183.250E-15
35.0000E-3	213.884E-12	36.6277E-3	-9.04354E+0	18.3786E+0	3.93869E-12	-234.343E-15	221.541E-12	36.6275E-3	-9.58815E+0	18.4033E+0	4.15543E-12	56.4932E-15
34.7500E-3	212.347E-12	36.3722E-3	-9.31585E+0	18.6327E+0	3.99449E-12	-304.549E-15	220.171E-12	36.3756E-3	-9.22803E+0	19.0535E+0	4.06831E-12	198.506E-15
34.5000E-3	210.935E-12	36.1317E-3	-9.67052E+0	18.2548E+0	3.86139E-12	424.039E-15	218.410E-12	36.1239E-3	-8.88640E+0	19.7060E+0	4.13935E-12	24.5929E-15
34.2500E-3	209.382E-12	35.8796E-3	-9.61613E+0	18.7179E+0	3.97137E-12	25.6063E-15	216.491E-12	35.8872E-3	-9.55663E+0	19.4492E+0	4.07859E-12	-22.0033E-15
34.0000E-3	207.746E-12	35.6616E-3	-9.25047E+0	18.7178E+0	3.89917E-12	-43.4556E-15	215.349E-12	35.6598E-3	-9.09473E+0	18.9182E+0	4.13083E-12	28.6661E-15
33.7500E-3	206.463E-12	35.3986E-3	-9.38133E+0	18.3752E+0	3.93205E-12	-95.6275E-15	213.713E-12	35.4044E-3	-9.19596E+0	19.0222E+0	4.19499E-12	-35.5062E-15
33.5000E-3	204.878E-12	35.1519E-3	-9.60678E+0	18.2948E+0	3.99810E-12	20.6535E-15	211.737E-12	35.1564E-3	-9.44230E+0	19.2177E+0	4.17936E-12	-61.4740E-15
33.2500E-3	203.186E-12	34.8961E-3	-9.03642E+0	18.9849E+0	4.00835E-12	-54.8538E-15	210.244E-12	34.8926E-3	-9.30922E+0	19.3686E+0	4.27826E-12	170.832E-15
33.0000E-3	202.013E-12	34.6407E-3	-9.48387E+0	18.6322E+0	3.84277E-12	-44.1701E-15	208.891E-12	34.6334E-3	-9.30730E+0	19.2994E+0	4.28717E-12	71.6316E-15
32.7500E-3	200.465E-12	34.3968E-3	-9.45109E+0	18.6867E+0	3.87251E-12	-49.1616E-15	207.383E-12	34.3889E-3	-9.12218E+0	19.3293E+0	4.07776E-12	-3.06900E-15
32.5000E-3	199.005E-12	34.1480E-3	-9.31410E+0	18.2914E+0	3.83011E-12	35.0234E-15	205.801E-12	34.1547E-3	-9.02137E+0	19.5032E+0	4.03061E-12	-74.0395E-15
32.2500E-3	197.586E-12	33.8999E-3	-9.59662E+0	18.3705E+0	3.84960E-12	-75.1878E-15	204.126E-12	33.8935E-3	-9.36495E+0	18.9641E+0	3.93678E-12	-135.559E-15
32.0000E-3	196.004E-12	33.6567E-3	-9.17785E+0	18.7163E+0	3.87784E-12	-43.4337E-15	202.713E-12	33.6520E-3	-9.10304E+0	19.4322E+0	4.05762E-12	-218.017E-15
31.7500E-3	194.392E-12	33.4016E-3	-9.93502E+0	18.7581E+0	3.97565E-12	121.364E-15	201.233E-12	33.4094E-3	-9.40213E+0	19.5230E+0	4.11846E-12	142.411E-15
31.5000E-3	193.002E-12	33.1774E-3	-9.81625E+0	18.9535E+0	3.89601E-12	-163.477E-15	199.742E-12	33.1769E-3	-9.22552E+0	19.2353E+0	4.06829E-12	-8.14246E-15
31.2500E-3	191.499E-12	32.9172E-3	-9.48715E+0	18.7757E+0	3.82633E-12	31.9668E-15	197.888E-12	32.9180E-3	-8.99067E+0	19.1174E+0	3.92682E-12	-37.9535E-15
31.0000E-3	190.057E-12	32.6755E-3	-9.00949E+0	18.4230E+0	3.90883E-12	-142.436E-15	196.371E-12	32.6781E-3	-8.84126E+0	19.3206E+0	3.89323E-12	-68.5326E-15
30.7500E-3	188.647E-12	32.4104E-3	-9.22189E+0	18.3201E+0	3.80775E-12	19.2354E-15	194.903E-12	32.4092E-3	-9.62018E+0	19.5102E+0	4.07943E-12	146.449E-15
30.5000E-3	187.236E-12	32.1625E-3	-9.19665E+0	18.5094E+0	3.80284E-12	49.6330E-15	193.390E-12	32.1600E-3	-9.38397E+0	19.1754E+0	3.94829E-12	-51.5468E-15
30.2500E-3	185.619E-12	31.9158E-3	-9.73561E+0	18.6318E+0	3.88074E-12	48.4186E-15	191.489E-12	31.9086E-3	-9.14440E+0	19.0848E+0	3.99326E-12	-20.2263E-15
30.0000E-3	183.979E-12	31.6578E-3	-8.90981E+0	18.5374E+0	3.90152E-12	-242.193E-15	189.885E-12	31.6564E-3	-9.54153E+0	19.2921E+0	3.93489E-12	44.2410E-15
29.7500E-3	182.467E-12	31.4250E-3	-9.49534E+0	18.0439E+0	3.87432E-12	-18.4213E-15	188.561E-12	31.4225E-3	-9.37395E+0	19.2874E+0	4.11650E-12	86.1136E-15
29.5000E-3	181.050E-12	31.1801E-3	-9.07670E+0	18.5365E+0	4.06715E-12	-59.9525E-15	186.762E-12	31.1612E-3	-9.22693E+0	19.0987E+0	3.99184E-12	-168.293E-15
29.2500E-3	179.413E-12	30.9395E-3	-9.54919E+0	18.5307E+0	3.90483E-12	2.23780E-15	185.536E-12	30.9346E-3	-9.00984E+0	19.2650E+0	4.14265E-12	-41.7390E-15
29.0000E-3	177.925E-12	30.6834E-3	-9.30626E+0	18.5086E+0	4.08893E-12	-31.3948E-15	184.031E-12	30.6866E-3	-9.62086E+0	19.3170E+0	4.17915E-12	-19.7539E-15
28.7500E-3	176.429E-12	30.4546E-3	-9.50804E+0	18.5568E+0	3.89270E-12	14.7036E-15	182.325E-12	30.4521E-3	-9.54305E+0	18.9339E+0	3.99525E-12	60.1778E-15
28.5000E-3	175.004E-12	30.2144E-3	-9.32301E+0	18.4941E+0	4.02411E-12	15.8531E-15	180.834E-12	30.2157E-3	-9.26062E+0	18.9584E+0	4.01027E-12	110.198E-15
28.2500E-3	173.363E-12	29.9540E-3	-9.61662E+0	18.6908E+0	3.94283E-12	147.248E-15	179.055E-12	29.9420E-3	-9.32907E+0	19.2850E+0	4.01458E-12	-14.8899E-15
28.0000E-3	171.939E-12	29.7068E-3	-9.61735E+0	18.5143E+0	4.02851E-12	3.75155E-15	177.803E-12	29.6944E-3	-9.08036E+0	19.1982E+0	4.04462E-12	135.951E-15
27.7500E-3	170.524E-12	29.4475E-3	-9.69765E+0	19.0286E+0	3.95723E-12	96.1784E-15	176.153E-12	29.4358E-3	-9.21522E+0	19.4393E+0	4.01291E-12	129.738E-15
27.5000E-3	168.926E-12	29.2034E-3	-9.52527E+0	18.2458E+0	3.91565E-12	-93.3151E-15	174.361E-12	29.1994E-3	-9.60266E+0	18.8142E+0	4.05226E-12	62.8532E-15
27.2500E-3	167.419E-12	28.9533E-3	-9.20516E+0	18.4167E+0	3.92002E-12	-82.3061E-15	172.692E-12	28.9524E-3	-8.94138E+0	19.3809E+0	4.07941E-12	-72.8503E-15
27.0000E-3	165.933E-12	28.7055E-3	-9.42548E+0	18.7090E+0	3.86947E-12	1.33058E-15	171.254E-12	28.7114E-3	-9.34930E+0	19.1597E+0	4.02338E-12	19.9026E-15
26.7500E-3	164.541E-12	28.4761E-3	-9.27784E+0	18.5319E+0	3.92439E-12	-54.6839E-15	169.694E-12	28.4636E-3	-9.56583E+0	19.3027E+0	4.11058E-12	63.7799E-15
26.5000E-3	163.159E-12	28.2219E-3	-9.54170E+0	18.7611E+0	3.95061E-12	90.1765E-15	168.076E-12	28.2100E-3	-8.97434E+0	19.1613E+0	3.99323E-12	77.4481E-15
26.2500E-3	161.457E-12	27.9651E-3	-9.29716E+0	18.9768E+0	3.99740E-12	-67.2264E-15	166.614E-12	27.9638E-3	-9.21650E+0	19.5747E+0	4.03992E-12	-118.808E-15
26.0000E-3	159.816E-12	27.7142E-3	-9.45541E+0	18.9001E+0	4.11490E-12	-41.9223E-15	164.803E-12	27.7015E-3	-9.68111E+0	18.8644E+0	3.99178E-12	-78.7451E-15
25.7500E-3	158.206E-12	27.4452E-3	-9.48172E+0	18.9499E+0	4.13597E-12	24.5085E-15	163.327E-12	27.4437E-3	-9.63175E+0	19.1745E+0	4.10254E-12	233.445E-15
25.5000E-3	156.911E-12	27.1867E-3	-8.98556E+0	18.9107E+0	4.04655E-12	-75.2572E-15	161.731E-12	27.1868E-3	-9.48729E+0	18.7939E+0	4.04327E-12	12.1624E-15
25.2500E-3	155.251E-12	26.9354E-3	-9.38755E+0	18.6418E+0	4.03615E-12	-26.5674E-15	160.339E-12	26.9293E-3	-9.24076E+0	19.3148E+0	4.07356E-12	68.6566E-15
25.0000E-3	153.713E-12	26.6899E-3	-9.28811E+0	18.6955E+0	3.92193E-12	-54.8515E-15	158.673E-12	26.6886E-3	-9.62670E+0	19.6106E+0	4.20325E-12	-91.2086E-15
24.7500E-3	152.217E-12	26.4392E-3	-9.38867E+0	18.6772E+0	4.10127E-12	-60.0336E-15	157.013E-12	26.4400E-3	-9.08580E+0	19.3481E+0	4.07588E-12	-72.9813E-15
24.5000E-3	150.628E-12	26.1879E-3	-9.48285E+0	18.7825E+0	3.93957E-12	-30.9468E-15	155.239E-12	26.1918E-3	-9.46869E+0	19.7106E+0	4.14398E-12	104.183E-15
24.2500E-3	149.092E-12	25.9664E-3	-9.50543E+0	19.0282E+0	4.01911E-12	198.814E-15	153.901E-12	25.9700E-3	-9.16144E+0	19.0550E+0	4.01132E-12	-189.954E-15
24.0000E-3	147.391E-12	25.7080E-3	-9.27665E+0	19.0651E+0	4.03059E-12	42.3030E-15	152.181E-12	25.7105E-3	-8.83312E+0	19.4741E+0	3.95319E-12	-89.1167E-15
23.7500E-3	145.976E-12	25.4746E-3	-9.39652E+0	19.0259E+0	3.96092E-12	-198.223E-15	150.433E-12	25.4665E-3	-9.09291E+0	19.5411E+0	4.15117E-12	-38.7198E-15
23.5000E-3	144.437E-12	25.2199E-3	-9.55889E+0	18.8321E+0	3.88885E-12	-100.975E-15	148.876E-12	25.2277E-3	-9.55739E+0	19.8196E+0	4.09429E-12	-60.0513E-15
23.2500E-3	142.960E-12	24.9751E-3	-9.19496E+0	19.0298E+0	3.94988E-12	-36.5167E-15	147.367E-12	24.9586E-3	-9.31620E+0	19.8682E+0	4.18211E-12	55.4703E-15
23.0000E-3	141.411E-12	24.7230E-3	-9.21319E+0	19.0052E+0	4.08278E-12	44.9937E-15	145.890E-12	24.7314E-3	-9.23676E+0	19.1770E+0	4.08166E-12	-41.3942E-15
22.7500E-3	140.085E-12	24.4797E-3	-9.02040E+0	18.6570E+0	3.82137E-12	5.34230E-15	144.282E-12	24.4793E-3	-9.29493E+0	19.2293E+0	4.00843E-12	115.461E-15
22.5000E-3	138.394E-12	24.2345E-3	-9.05478E+0	18.7520E+0	3.96559E-12	-38.2386E-15	142.522E-12	24.2292E-3	-9.43676E+0	19.2160E+0	3.97077E-12	-164.976E-15
22.2500E-3	136.838E-12	23.9916E-3	-9.41668E+0	19.0228E+0	4.04891E-12	35.5076E-15	140.987E-12	23.9775E-3	-9.46056E+0	19.5155E+0	4.01707E-12	-89.1119E-15
22.0000E-3	135.243E-12	23.7284E-3	-9.41822E+0	19.2682E+0	4.01278E-12	108.107E-15	139.229E-12	23.7395E-3	-9.73221E+0	19.7546E+0	4.17280E-12	220.215E-15
21.7500E-3	133.696E-12	23.5129E-3	-9.26515E+0	19.1007E+0	3.92868E-12	-25.3285E-15	137.904E-12	23.5015E-3	-9.06287E+0	19.3604E+0	3.97677E-12	-161.107E-15
21.5000E-3	132.160E-12	23.2595E-3	-9.54969E+0	18.8957E+0	4.01024E-12	10.4459E-15	136.238E-12	23.2636E-3	-9.20548E+0	19.9140E+0	4.19331E-12	-20.2207E-15
21.2500E-3	130.802E-12	23.0307E-3	-9.28390E+0	18.7826E+0	3.81471E-12	66.5134E-15	134.637E-12	23.0127E-3	-9.68437E+0	19.6953E+0	4.14838E-12	116.498E-15
21.0000E-3	129.175E-12	22.7627E-3	-9.48879E+0	19.2153E+0	3.94740E-12	8.14331E-15	132.843E-12	22.7537E-3	-9.44476E+0	19.8718E+0	4.09050E-12	143.255E-15
20.7500E-3	127.582E-12	22.5014E-3	-9.49669E+0	18.6994E+0	3.90602E-12	-77.5705E-15	131.240E-12	22.4958E-3	-9.08498E+0	19.8725E+0	4.03474E-12	-116.411E-15
20.5000E-3	126.029E-12	22.2458E-3	-9.57888E+0	19.5437E+0	4.05327E-12	-28.3526E-15	129.644E-12	22.2407E-3	-9.71831E+0	19.6307E+0	3.97756E-12	-981.069E-18
20.2500E-3	124.516E-12	21.9913E-3	-9.65112E+0	19.2867E+0	4.03336E-12	28.1196E-15	128.061E-12	21.9916E-3	-9.16456E+0	19.7747E+0	4.21334E-12	-74.6849E-15
20.0000E-3	122.983E-12	21.7536E-3	-9.68146E+0	19.0323E+0	3.97828E-12	58.4564E-15	126.490E-12	21.7492E-3	-9.46821E+0	19.6110E+0	4.24650E-12	-64.6319E-15
19.7500E-3	121.245E-12	21.4960E-3	-9.10578E+0	18.9584E+0	3.90380E-12	35.8015E-15	124.882E-12	21.4945E-3	-9.69665E+0	19.5068E+0	4.00815E-12	-35.6181E-15
19.5000E-3	119.701E-12	21.2601E-3	-9.37606E+0	18.8384E+0	3.95988E-12	-63.2888E-15	123.229E-12	21.2485E-3	-9.78989E+0	19.2940E+0	4.09502E-12	45.0662E-15
19.2500E-3	117.858E-12	20.9671E-3	-9.34054E+0	18.8186E+0	3.99045E-12	-43.2753E-15	121.155E-12	20.9639E-3	-9.64572E+0	19.6496E+0	4.16096E-12	52.8198E-15
19.0000E-3	116.401E-12	20.7256E-3	-9.15550E+0	19.0365E+0	3.92940E-12	7.62014E-15	119.587E-12	20.7214E-3	-9.27580E+0	19.5400E+0	4.07254E-12	-139.395E-15
18.7500E-3	114.873E-12	20.4841E-3	-9.24748E+0	19.0562E+0	4.05681E-12	72.6538E-15	118.147E-12	20.4780E-3	-9.82481E+0	19.4311E+0	3.98819E-12	-63.2270E-15
18.5000E-3	113.522E-12	20.2304E-3	-9.59569E+0	19.3840E+0	3.96897E-12	71.7538E-15	116.444E-12	20.2328E-3	-9.44180E+0	19.6431E+0	4.12846E-12	24.6035E-15
18.2500E-3	111.840E-12	19.9761E-3	-9.07120E+0	19.2593E+0	3.91099E-12	-104.703E-15	114.933E-12	19.9700E-3	-9.47648E+0	19.4024E+0	4.02593E-12	-175.401E-15
18.0000E-3	110.285E-12	19.7267E-3	-9.67329E+0	18.7838E+0	3.94018E-12	2.39258E-15	113.396E-12	19.7115E-3	-9.30822E+0	19.4821E+0	3.89293E-12	-745.752E-18
17.7500E-3	108.631E-12	19.4604E-3	-9.56305E+0	19.1453E+0	3.99466E-12	35.7038E-15	111.737E-12	19.4570E-3	-9.48434E+0	19.7046E+0	4.09719E-12	21.4216E-15
17.5000E-3	107.290E-12	19.2246E-3	-9.12053E+0	18.9905E+0	4.01375E-12	-46.6893E-15	110.290E-12	19.2205E-3	-9.17421E+0	19.4251E+0	3.96138E-12	-30.0457E-15
17.2500E-3	105.674E-12	18.9601E-3	-9.38295E+0	18.7733E+0	3.97654E-12	-61.6726E-15	108.527E-12	18.9491E-3	-9.53340E+0	19.6660E+0	4.10706E-12	-62.3280E-15
17.0000E-3	104.161E-12	18.7206E-3	-9.68573E+0	18.9227E+0	3.97459E-12	119.338E-15	107.012E-12	18.7174E-3	-9.34797E+0	19.8757E+0	4.17192E-12	41.6115E-15
16.7500E-3	102.674E-12	18.4610E-3	-9.62876E+0	19.3286E+0	4.01111E-12	-18.3714E-15	105.314E-12	18.4381E-3	-9.55563E+0	19.5969E+0	4.05901E-12	86.1386E-15
16.5000E-3	101.138E-12	18.2019E-3	-9.25980E+0	19.0652E+0	3.99288E-12	126.441E-15	103.886E-12	18.2077E-3	-9.24941E+0	19.3917E+0	3.93302E-12	-40.7162E-15
16.2500E-3	99.5622E-12	17.9478E-3	-9.53059E+0	19.0456E+0	3.96535E-12	-43.4292E-15	102.292E-12	17.9359E-3	-9.52258E+0	19.3090E+0	3.90163E-12	3.84149E-15
16.0000E-3	97.9378E-12	17.6675E-3	-9.68074E+0	19.2979E+0	3.97830E-12	41.1388E-15	100.535E-12	17.6640E-3	-9.08924E+0	19.1271E+0	3.95974E-12	64.8759E-15
15.7500E-3	96.4658E-12	17.4080E-3	-9.34355E+0	18.8430E+0	3.93660E-12	130.404E-15	99.1103E-12	17.4080E-3	-9.04759E+0	19.9340E+0	4.05352E-12	9.70865E-15
15.5000E-3	94.8198E-12	17.1277E-3	-9.13630E+0	19.1284E+0	3.84605E-12	162.504E-15	97.4554E-12	17.1101E-3	-9.52765E+0	19.6568E+0	3.97833E-12	-35.3428E-15
15.2500E-3	93.2936E-12	16.8725E-3	-9.36415E+0	19.3156E+0	3.95227E-12	-117.549E-15	95.8163E-12	16.8667E-3	-9.20148E+0	19.8383E+0	4.05322E-12	-110.891E-15
15.0000E-3	91.7770E-12	16.6160E-3	-9.54690E+0	19.2090E+0	3.91060E-12	-139.683E-15	94.2401E-12	16.6096E-3	-9.09340E+0	19.0092E+0	3.91830E-12	23.6359E-15
14.7500E-3	90.2136E-12	16.3704E-3	-9.79171E+0	19.3466E+0	4.03342E-12	-60.3868E-15	92.6966E-12	16.3677E-3	-9.50529E+0	19.4214E+0	4.04352E-12	-84.9025E-15
14.5000E-3	88.7515E-12	16.1294E-3	-9.11717E+0	19.1179E+0	3.93922E-12	-23.7727E-15	91.2370E-12	16.1445E-3	-9.25882E+0	19.2410E+0	3.92229E-12	83.7858E-15
14.2500E-3	87.1143E-12	15.8815E-3	-9.07991E+0	18.8891E+0	3.87586E-12	-63.0035E-15	89.3795E-12	15.8761E-3	-9.48289E+0	19.4522E+0	3.94626E-12	-120.428E-15
14.0000E-3	85.6624E-12	15.6263E-3	-9.77995E+0	18.6420E+0	3.86165E-12	-82.7943E-15	87.9504E-12	15.6333E-3	-9.64284E+0	19.1013E+0	3.94398E-12	-78.7300E-15
13.7500E-3	84.1062E-12	15.3760E-3	-9.19527E+0	19.0674E+0	3.89518E-12	-1.71545E-15	86.2958E-12	15.3687E-3	-9.60023E+0	19.6194E+0	4.08660E-12	-4.66636E-15
13.5000E-3	82.5955E-12	15.1189E-3	-9.49704E+0	18.9387E+0	3.96301E-12	-106.748E-15	84.7941E-12	15.1192E-3	-9.24761E+0	19.2405E+0	4.04436E-12	-95.2908E-15
13.2500E-3	81.1191E-12	14.8816E-3	-9.35438E+0	18.9189E+0	3.94962E-12	77.8332E-15	83.1079E-12	14.8691E-3	-9.60066E+0	19.7855E+0	4.06630E-12	-3.81378E-15
13.0000E-3	79.5153E-12	14.6221E-3	-9.25549E+0	18.8526E+0	3.87007E-12	-41.0096E-15	81.5110E-12	14.6238E-3	-9.66089E+0	19.6376E+0	4.00458E-12	-25.0604E-15
12.7500E-3	77.9809E-12	14.3784E-3	-9.22622E+0	18.5334E+0	3.89895E-12	-193.779E-15	79.9639E-12	14.3718E-3	-9.60199E+0	19.3416E+0	4.11475E-12	10.0932E-15
12.5000E-3	76.4906E-12	14.1304E-3	-9.35805E+0	19.0444E+0	3.90481E-12	2.61799E-15	78.3982E-12	14.1344E-3	-9.51828E+0	19.6391E+0	4.05180E-12	-47.4086E-15
12.2500E-3	74.9394E-12	13.8913E-3	-9.42360E+0	18.9782E+0	4.01891E-12	-58.1219E-15	76.8394E-12	13.8824E-3	-9.41543E+0	19.0362E+0	3.97366E-12	14.0056E-15
12.0000E-3	73.4479E-12	13.6568E-3	-9.47830E+0	19.1789E+0	3.88363E-12	-115.211E-15	75.3517E-12	13.6496E-3	-9.64210E+0	19.3310E+0	4.00230E-12	-11.8614E-15
11.7500E-3	71.8649E-12	13.3979E-3	-9.41299E+0	19.0585E+0	3.90885E-12	8.72694E-15	73.7112E-12	13.3962E-3	-9.51720E+0	19.4187E+0	4.05385E-12	-82.4582E-15
11.5000E-3	70.3735E-12	13.1602E-3	-9.39258E+0	18.6775E+0	3.84507E-12	-105.386E-15	72.0876E-12	13.1434E-3	-9.57761E+0	19.5011E+0	4.02253E-12	67.3041E-15
11.2500E-3	68.8434E-12	12.8909E-3	-9.15432E+0	18.9420E+0	3.86539E-12	-62.0359E-15	70.6619E-12	12.8882E-3	-9.30074E+0	19.4874E+0	4.05510E-12	-17.6078E-15
11.0000E-3	67.2618E-12	12.6306E-3	-9.07544E+0	18.5987E+0	3.83470E-12	69.7691E-15	69.0074E-12	12.6302E-3	-9.79892E+0	19.5814E+0	4.17777E-12	82.8210E-15
10.7500E-3	65.7985E-12	12.3833E-3	-9.75169E+0	18.8030E+0	3.93983E-12	42.0128E-15	67.3746E-12	12.3842E-3	-9.29328E+0	19.0783E+0	3.93445E-12	-28.8286E-15
10.5000E-3	64.2968E-12	12.1407E-3	-9.53095E+0	18.5208E+0	3.86828E-12	36.1722E-15	65.8267E-12	12.1378E-3	-9.44604E+0	18.8305E+0	3.94364E-12	-7.53065E-15
10.2500E-3	62.7085E-12	11.8985E-3	-9.18393E+0	18.4943E+0	3.84271E-12	16.7353E-15	64.3016E-12	11.8964E-3	-9.61061E+0	19.0299E+0	3.96686E-12	126.068E-15
10.0000E-3	61.1679E-12	11.6513E-3	-9.38797E+0	18.5774E+0	3.87455E-12	80.9017E-15	62.6463E-12	11.6452E-3	-9.21793E+0	19.2256E+0	3.98196E-12	65.6735E-15
9.75000E-3	59.6482E-12	11.4049E-3	-9.27655E+0	18.5276E+0	3.83447E-12	-93.6036E-15	61.0159E-12	11.4015E-3	-9.33073E+0	18.8248E+0	3.95076E-12	-6.46473E-15
9.50000E-3	58.1831E-12	11.1780E-3	-9.18035E+0	18.3037E+0	3.84203E-12	-38.9804E-15	59.5901E-12	11.1727E-3	-9.65976E+0	19.3383E+0	4.08570E-12	128.744E-15
9.25000E-3	56.6593E-12	10.9365E-3	-9.40142E+0	18.2888E+0	3.86240E-12	-78.2738E-15	58.0367E-12	10.9249E-3	-9.65377E+0	18.9097E+0	3.98900E-12	18.2646E-15
9.00000E-3	55.1611E-12	10.6957E-3	-9.58906E+0	18.4940E+0	3.90890E-12	-39.1193E-15	56.6365E-12	10.6921E-3	-9.10098E+0	19.2469E+0	3.93454E-12	48.5953E-15
8.75000E-3	53.7130E-12	10.4398E-3	-9.29707E+0	18.3744E+0	3.87264E-12	102.492E-15	55.0038E-12	10.4289E-3	-9.84471E+0	18.8714E+0	3.94988E-12	29.4747E-15
8.50000E-3	52.2064E-12	10.1940E-3	-9.53330E+0	18.2967E+0	3.79441E-12	33.0851E-15	53.5026E-12	10.1837E-3	-8.99626E+0	18.9279E+0	3.94515E-12	-49.2124E-15
8.25000E-3	50.8092E-12	9.94023E-3	-9.11533E+0	18.2396E+0	3.75388E-12	-65.5122E-15	51.9531E-12	9.93164E-3	-9.75977E+0	18.8366E+0	3.92320E-12	-33.3424E-15
8.00000E-3	49.3910E-12	9.69958E-3	-9.01846E+0	18.2706E+0	3.72038E-12	-28.2358E-15	50.4957E-12	9.69282E-3	-9.77588E+0	18.4437E+0	3.94349E-12	-86.9474E-15
7.75000E-3	47.8569E-12	9.45380E-3	-9.35859E+0	18.6434E+0	3.87882E-12	1.21491E-15	48.9688E-12	9.45289E-3	-9.44416E+0	18.5190E+0	3.91479E-12	56.9460E-15
7.50000E-3	46.3792E-12	9.20284E-3	-9.22700E+0	18.1919E+0	3.74796E-12	83.1637E-15	47.4075E-12	9.19029E-3	-9.34758E+0	18.8638E+0	3.94347E-12	-21.7610E-15
7.25000E-3	44.9487E-12	8.96462E-3	-9.15586E+0	18.5633E+0	3.81802E-12	-17.4492E-15	45.9891E-12	8.97429E-3	-9.01069E+0	18.5810E+0	3.68379E-12	104.714E-15
7.00000E-3	43.4788E-12	8.72288E-3	-9.50073E+0	17.7674E+0	3.73474E-12	-40.1699E-15	44.3646E-12	8.71210E-3	-9.72677E+0	18.4860E+0	3.89338E-12	-38.6901E-15
6.75000E-3	41.9430E-12	8.46713E-3	-9.24000E+0	18.0108E+0	3.68556E-12	-88.0760E-15	42.9712E-12	8.46739E-3	-9.38294E+0	18.1440E+0	3.75782E-12	-48.9684E-15
6.50000E-3	40.6322E-12	8.22617E-3	-9.21129E+0	17.7863E+0	3.68759E-12	40.6323E-15	41.4825E-12	8.21437E-3	-9.10559E+0	17.9482E+0	3.73469E-12	1.92987E-15
6.25000E-3	39.0936E-12	7.94903E-3	-9.56115E+0	18.2537E+0	3.73605E-12	-39.5556E-15	40.0477E-12	7.95723E-3	-9.06212E+0	18.2047E+0	3.75658E-12	15.0233E-15
6.00000E-3	37.7585E-12	7.70144E-3	-8.94801E+0	17.8602E+0	3.65786E-12	-55.2929E-15	38.6282E-12	7.69625E-3	-8.80881E+0	17.9141E+0	3.62903E-12	5.94781E-15
5.75000E-3	36.2808E-12	7.43516E-3	-9.68201E+0	17.6058E+0	3.77074E-12	-9.03975E-15	37.0262E-12	7.43751E-3	-9.32433E+0	18.1548E+0	3.71604E-12	38.9620E-15
5.50000E-3	34.8902E-12	7.18562E-3	-9.56742E+0	17.2581E+0	3.62312E-12	-136.786E-15	35.5787E-12	7.18359E-3	-9.36453E+0	17.9646E+0	3.76399E-12	17.9867E-15
5.25000E-3	33.4733E-12	6.94814E-3	-8.90534E+0	17.9363E+0	3.75429E-12	27.8900E-15	34.1926E-12	6.94772E-3	-9.32753E+0	17.8400E+0	3.74132E-12	-46.3195E-15
5.00000E-3	31.9958E-12	6.68924E-3	-9.16206E+0	17.5044E+0	3.69028E-12	8.10907E-15	32.6572E-12	6.68161E-3	-9.56826E+0	18.0010E+0	3.74604E-12	-144.491E-15
4.75000E-3	30.7062E-12	6.47505E-3	-9.52355E+0	17.5871E+0	3.83693E-12	-60.7066E-15	31.3719E-12	6.47179E-3	-9.72865E+0	17.6061E+0	3.69832E-12	89.2829E-15
4.50000E-3	29.1448E-12	6.20076E-3	-9.42700E+0	17.4197E+0	3.71741E-12	9.43866E-15	29.8204E-12	6.20480E-3	-9.47708E+0	17.3339E+0	3.65887E-12	-42.8225E-15
4.25000E-3	27.8544E-12	5.96374E-3	-9.95036E+0	17.2074E+0	3.68551E-12	2.28093E-15	28.3703E-12	5.96378E-3	-9.61884E+0	17.7218E+0	3.75370E-12	116.862E-15
4.00000E-3	26.4326E-12	5.71317E-3	-9.87971E+0	17.3624E+0	3.68461E-12	-47.0958E-15	27.0108E-12	5.71705E-3	-9.26121E+0	17.6663E+0	3.70104E-12	-9.90644E-15
3.75000E-3	25.0809E-12	5.46745E-3	-9.38663E+0	16.7428E+0	3.57292E-12	-77.4781E-15	25.5467E-12	5.45571E-3	-9.34779E+0	16.8993E+0	3.60591E-12	-61.8381E-15
3.50000E-3	23.7323E-12	5.22422E-3	-9.22007E+0	17.0060E+0	3.65467E-12	25.2645E-15	24.2757E-12	5.21890E-3	-9.66964E+0	17.0906E+0	3.68760E-12	4.28336E-15
3.25000E-3	22.3306E-12	4.97248E-3	-9.74832E+0	16.7595E+0	3.59263E-12	12.7811E-15	22.7277E-12	4.96131E-3	-9.76947E+0	16.9460E+0	3.72121E-12	8.38593E-15
3.00000E-3	20.8844E-12	4.72491E-3	-9.21197E+0	16.3987E+0	3.51370E-12	10.7759E-15	21.3723E-12	4.72201E-3	-9.27810E+0	16.5947E+0	3.56544E-12	98.0234E-15
2.75000E-3	19.5567E-12	4.48701E-3	-9.36781E+0	16.2820E+0	3.62245E-12	-63.0167E-15	19.9431E-12	4.47366E-3	-9.32502E+0	16.6378E+0	3.64230E-12	35.5593E-15
2.50000E-3	18.1886E-12	4.22635E-3	-9.57385E+0	16.3352E+0	3.53484E-12	-114.785E-15	18.5551E-12	4.23450E-3	-9.25747E+0	16.8874E+0	3.62391E-12	20.7652E-15
2.25000E-3	16.8893E-12	4.00459E-3	-9.29374E+0	16.6883E+0	3.59847E-12	52.3568E-15	17.1885E-12	4.00049E-3	-9.52689E+0	16.7737E+0	3.58932E-12	-83.3395E-15
2.00000E-3	15.5093E-12	3.74765E-3	-9.17476E+0	15.9693E+0	3.43802E-12	-53.2554E-15	15.8047E-12	3.74887E-3	-9.55277E+0	16.5730E+0	3.62515E-12	119.612E-15
1.75000E-3	14.2106E-12	3.51318E-3	-9.17561E+0	16.0729E+0	3.50380E-12	38.1728E-15	14.4781E-12	3.51272E-3	-9.19267E+0	16.3359E+0	3.50119E-12	-55.7137E-15
1.50000E-3	12.7894E-12	3.25291E-3	-9.18845E+0	16.3281E+0	3.40043E-12	-29.7681E-15	13.0468E-12	3.25108E-3	-9.62429E+0	16.4431E+0	3.52514E-12	110.515E-15
1.25000E-3	11.3977E-12	2.98892E-3	-9.37395E+0	16.3236E+0	3.56415E-12	-14.6150E-15	11.6810E-12	3.00552E-3	-9.37434E+0	16.8715E+0	3.48039E-12	-4.18120E-15
1.00000E-3	10.0968E-12	2.74358E-3	-9.67495E+0	16.6380E+0	3.55730E-12	-47.7474E-15	10.2580E-12	2.74079E-3	-9.32809E+0	17.0267E+0	3.60569E-12	-83.8458E-15
750.000E-6	8.76242E-12	2.49214E-3	-9.70773E+0	16.4241E+0	3.53220E-12	30.1091E-15	8.90339E-12	2.48696E-3	-9.31549E+0	16.5130E+0	3.54761E-12	-5.62771E-15
500.000E-6	7.44068E-12	2.23815E-3	-9.25522E+0	16.3341E+0	3.54949E-12	21.4320E-15	7.57377E-12	2.23903E-3	-9.35761E+0	16.5201E+0	3.56272E-12	-13.3340E-15
250.000E-6	6.22244E-12	1.99558E-3	-9.32109E+0	15.9838E+0	3.42488E-12	-65.9350E-15	6.32155E-12	1.99151E-3	-9.10038E+0	15.4614E+0	3.37875E-12	-50.3528E-15
-6.93889E-18	5.02148E-12	1.75331E-3	-9.59700E+0	15.3030E+0	3.31738E-12	999.757E-18	5.12213E-12	1.75184E-3	-9.54821E+0	15.3602E+0	3.37271E-12	23.1302E-15
-250.000E-6	4.86914E-12	1.72852E-3	-9.19462E+0	14.9914E+0	3.24868E-12	43.5529E-15	4.93078E-12	1.72096E-3	-9.27351E+0	15.4402E+0	3.44444E-12	57.4927E-15
-500.000E-6	3.89721E-12	1.53500E-3	-9.47074E+0	14.9461E+0	3.29703E-12	-117.380E-15	3.89863E-12	1.52496E-3	-9.20042E+0	15.1623E+0	3.34094E-12	-25.8288E-15
-750.000E-6	2.65746E-12	1.30541E-3	-9.52155E+0	14.6912E+0	3.21462E-12	-48.6969E-15	2.69567E-12	1.30670E-3	-9.24785E+0	14.6424E+0	3.24578E-12	55.7707E-15
-1.00000E-3	1.40584E-12	1.07759E-3	-9.30268E+0	14.5933E+0	3.27766E-12	62.4269E-15	1.42735E-12	1.07403E-3	-9.01872E+0	14.5169E+0	3.21708E-12	-35.9832E-15
-1.25000E-3	113.741E-15	837.278E-6	-9.44013E+0	14.3201E+0	3.23218E-12	-63.9039E-15	125.251E-15	837.270E-6	-9.52835E+0	14.4881E+0	3.18010E-12	11.8576E-15
-1.50000E-3	-1.13821E-12	609.764E-6	-9.46072E+0	14.5753E+0	3.24887E-12	128.255E-15	-1.17562E-12	611.982E-6	-9.34899E+0	14.6071E+0	3.32476E-12	92.7904E-15
-1.75000E-3	-2.39783E-12	377.978E-6	-9.59617E+0	14.0517E+0	3.15046E-12	112.309E-15	-2.43129E-12	376.699E-6	-9.55095E+0	14.6534E+0	3.19176E-12	-756.292E-18
-2.00000E-3	-3.60175E-12	149.012E-6	-9.42523E+0	14.6530E+0	3.28993E-12	32.8018E-15	-3.67714E-12	154.653E-6	-9.67809E+0	14.5331E+0	3.25780E-12	144.290E-15
-2.25000E-3	-4.84210E-12	-81.9066E-6	-9.52454E+0	14.8171E+0	3.30740E-12	26.2436E-15	-4.92850E-12	-79.6254E-6	-9.34965E+0	15.0695E+0	3.30028E-12	45.4659E-15
-2.50000E-3	-6.00604E-12	-294.787E-6	-8.88186E+0	15.4357E+0	3.25302E-12	-22.6032E-15	-6.11170E-12	-296.829E-6	-9.27904E+0	15.6696E+0	3.35727E-12	-73.5476E-15
-2.75000E-3	-7.32631E-12	-537.771E-6	-9.64937E+0	16.2533E+0	3.53429E-12	32.8933E-15	-7.43945E-12	-539.118E-6	-9.35531E+0	16.7972E+0	3.61032E-12	-8.90125E-15
-3.00000E-3	-8.58614E-12	-763.947E-6	-9.34512E+0	17.0025E+0	3.62789E-12	22.2736E-15	-8.75072E-12	-761.337E-6	-8.97849E+0	17.0142E+0	3.58158E-12	22.6589E-15
-3.25000E-3	-9.95743E-12	-981.949E-6	-9.41242E+0	16.5866E+0	3.54308E-12	-74.7896E-15	-10.1516E-12	-991.086E-6	-9.64607E+0	17.2780E+0	3.66885E-12	-43.0455E-15
-3.50000E-3	-11.3243E-12	-1.20097E-3	-9.39801E+0	17.3204E+0	3.66477E-12	20.5937E-15	-11.5465E-12	-1.20756E-3	-9.50404E+0	17.4433E+0	3.65186E-12	118.234E-15
-3.75000E-3	-12.7424E-12	-1.45116E-3	-9.49275E+0	17.2210E+0	3.74278E-12	-63.5658E-15	-12.9858E-12	-1.45626E-3	-9.04495E+0	17.7360E+0	3.74283E-12	-14.0501E-15
-4.00000E-3	-14.1937E-12	-1.69800E-3	-9.76113E+0	17.6170E+0	3.70825E-12	142.353E-15	-14.4716E-12	-1.69844E-3	-9.22158E+0	17.8596E+0	3.73475E-12	-7.18774E-15
-4.25000E-3	-15.6339E-12	-1.94045E-3	-9.37204E+0	17.6041E+0	3.73655E-12	58.3860E-15	-15.9045E-12	-1.94121E-3	-8.96453E+0	18.1268E+0	3.75013E-12	5.18520E-15
-4.50000E-3	-17.1117E-12	-2.19116E-3	-9.78125E+0	17.8589E+0	3.77411E-12	-77.0194E-15	-17.4128E-12	-2.19584E-3	-9.60225E+0	18.7120E+0	3.85304E-12	-114.854E-15
-4.75000E-3	-18.6310E-12	-2.43973E-3	-9.57539E+0	18.6559E+0	3.96484E-12	55.0093E-15	-18.9545E-12	-2.44151E-3	-9.25598E+0	19.0272E+0	3.96850E-12	80.4769E-15
-5.00000E-3	-19.9651E-12	-2.65755E-3	-9.38445E+0	18.9383E+0	3.88381E-12	-15.0496E-15	-20.3783E-12	-2.66242E-3	-9.24604E+0	18.8657E+0	3.95511E-12	-37.4117E-15
-5.25000E-3	-21.6257E-12	-2.92229E-3	-9.42542E+0	19.1736E+0	4.06447E-12	108.697E-15	-21.9978E-12	-2.92027E-3	-9.59562E+0	19.2026E+0	4.02969E-12	-4.15116E-15
-5.50000E-3	-23.1725E-12	-3.17088E-3	-9.22283E+0	19.3360E+0	3.94226E-12	8.47114E-15	-23.6319E-12	-3.18320E-3	-9.65195E+0	19.7227E+0	4.13395E-12	89.1103E-15
-5.75000E-3	-24.7216E-12	-3.40566E-3	-9.18509E+0	19.3985E+0	3.96539E-12	9.59685E-15	-25.1314E-12	-3.40873E-3	-9.49301E+0	19.9409E+0	4.07174E-12	93.4709E-15
-6.00000E-3	-26.3423E-12	-3.66164E-3	-9.43137E+0	19.0811E+0	3.96134E-12	-5.17739E-15	-26.8158E-12	-3.66469E-3	-9.41964E+0	19.8433E+0	4.08157E-12	-71.8498E-15
-6.25000E-3	-27.8599E-12	-3.90429E-3	-9.32849E+0	19.6953E+0	4.02310E-12	-12.6812E-15	-28.3398E-12	-3.90338E-3	-9.29598E+0	20.1795E+0	4.13057E-12	2.48941E-15
-6.50000E-3	-29.5745E-12	-4.17212E-3	-9.31491E+0	19.8366E+0	4.03841E-12	-14.1794E-15	-30.0599E-12	-4.18181E-3	-9.72243E+0	20.3179E+0	4.20067E-12	-44.9160E-15
-6.75000E-3	-31.1570E-12	-4.42823E-3	-9.43464E+0	20.0084E+0	4.11586E-12	-19.8784E-15	-31.6700E-12	-4.42951E-3	-9.53556E+0	20.7197E+0	4.18740E-12	-30.7373E-15
-7.00000E-3	-32.7160E-12	-4.66507E-3	-9.88392E+0	20.0155E+0	4.11452E-12	2.10943E-15	-33.3196E-12	-4.68171E-3	-9.55730E+0	20.7045E+0	4.34247E-12	-134.363E-15
-7.25000E-3	-34.3665E-12	-4.92080E-3	-9.25412E+0	20.0150E+0	4.04320E-12	76.6441E-15	-34.9849E-12	-4.91981E-3	-9.19163E+0	20.8847E+0	4.12842E-12	-45.3951E-15
-7.50000E-3	-36.0079E-12	-5.15349E-3	-9.52261E+0	20.1942E+0	4.16926E-12	-75.7567E-15	-36.5090E-12	-5.15169E-3	-9.36543E+0	20.8992E+0	4.22265E-12	-51.1719E-15
-7.75000E-3	-37.7393E-12	-5.41021E-3	-9.38132E+0	20.7026E+0	4.19391E-12	34.7555E-15	-38.3957E-12	-5.41498E-3	-9.70688E+0	21.0157E+0	4.21979E-12	-32.4541E-15
-8.00000E-3	-39.3572E-12	-5.65447E-3	-9.08043E+0	20.7314E+0	4.15410E-12	10.5791E-15	-40.0347E-12	-5.65050E-3	-9.22008E+0	21.1567E+0	4.30033E-12	87.8511E-15
-8.25000E-3	-41.0738E-12	-5.89938E-3	-9.80431E+0	21.0882E+0	4.38273E-12	-81.0519E-15	-41.7854E-12	-5.89475E-3	-8.86625E+0	21.0665E+0	4.23975E-12	-24.0853E-15
-8.50000E-3	-42.7506E-12	-6.14248E-3	-9.30869E+0	21.1297E+0	4.19132E-12	48.6717E-15	-43.4548E-12	-6.14659E-3	-9.40970E+0	21.3846E+0	4.31193E-12	109.485E-15
-8.75000E-3	-44.4165E-12	-6.38582E-3	-9.16126E+0	21.3747E+0	4.35724E-12	-14.9249E-15	-45.1069E-12	-6.39098E-3	-9.40364E+0	21.1824E+0	4.34702E-12	-79.2812E-15
-9.00000E-3	-46.1680E-12	-6.65162E-3	-9.52956E+0	21.3143E+0	4.42284E-12	-72.9343E-15	-46.8933E-12	-6.65248E-3	-9.08872E+0	21.1645E+0	4.29710E-12	111.733E-15
-9.25000E-3	-47.8877E-12	-6.89277E-3	-9.21338E+0	21.4313E+0	4.32251E-12	-76.8401E-15	-48.6421E-12	-6.90672E-3	-9.25740E+0	22.0282E+0	4.40462E-12	159.893E-15
-9.50000E-3	-49.6323E-12	-7.15329E-3	-9.35530E+0	21.0654E+0	4.26579E-12	15.7678E-15	-50.4031E-12	-7.15396E-3	-9.23797E+0	21.7684E+0	4.36169E-12	109.227E-15
-9.75000E-3	-51.3558E-12	-7.39141E-3	-9.47658E+0	21.4030E+0	4.32839E-12	112.444E-15	-52.0700E-12	-7.38835E-3	-9.21780E+0	21.6657E+0	4.49231E-12	69.6299E-15
-10.0000E-3	-53.0801E-12	-7.61751E-3	-9.60867E+0	21.5942E+0	4.41098E-12	52.3564E-15	-53.9089E-12	-7.63915E-3	-8.77012E+0	21.8118E+0	4.42534E-12	-39.2012E-15
-10.2500E-3	-54.9153E-12	-7.88409E-3	-9.36021E+0	21.5552E+0	4.37016E-12	20.4723E-15	-55.7291E-12	-7.87515E-3	-9.09249E+0	21.9844E+0	4.44031E-12	-36.8401E-15
-10.5000E-3	-56.6078E-12	-8.10904E-3	-9.50236E+0	21.8166E+0	4.45855E-12	129.770E-15	-57.5007E-12	-8.12293E-3	-9.23991E+0	22.3411E+0	4.46626E-12	-2.38150E-15
-10.7500E-3	-58.3721E-12	-8.35654E-3	-9.20275E+0	22.1560E+0	4.50814E-12	-67.7269E-15	-59.2526E-12	-8.35757E-3	-8.89924E+0	22.1415E+0	4.37839E-12	-112.613E-15
-11.0000E-3	-60.1856E-12	-8.60422E-3	-9.20481E+0	22.1836E+0	4.48556E-12	71.8228E-15	-61.1224E-12	-8.61214E-3	-9.48451E+0	22.5081E+0	4.55302E-12	92.9168E-15
-11.2500E-3	-61.8733E-12	-8.86564E-3	-9.70131E+0	22.0420E+0	4.51227E-12	46.6262E-15	-62.8744E-12	-8.85770E-3	-9.19938E+0	22.2857E+0	4.52260E-12	12.0265E-15
-11.5000E-3	-63.6661E-12	-9.11272E-3	-9.11971E+0	22.1462E+0	4.40551E-12	-27.6962E-15	-64.7674E-12	-9.12109E-3	-9.04996E+0	22.3282E+0	4.50767E-12	-75.3297E-15
-11.7500E-3	-65.6024E-12	-9.37906E-3	-9.16107E+0	22.3549E+0	4.47940E-12	-116.144E-15	-66.4455E-12	-9.37480E-3	-9.37500E+0	22.8393E+0	4.53093E-12	-341.808E-18
-12.0000E-3	-67.3822E-12	-9.62161E-3	-9.55665E+0	22.4801E+0	4.50980E-12	-21.8901E-15	-68.3982E-12	-9.62944E-3	-9.37246E+0	22.4490E+0	4.54816E-12	-108.694E-15
-12.2500E-3	-69.1399E-12	-9.86372E-3	-9.69014E+0	22.4993E+0	4.43533E-12	25.0142E-15	-70.1289E-12	-9.86221E-3	-9.41337E+0	22.9191E+0	4.66371E-12	32.9733E-15
-12.5000E-3	-71.0350E-12	-10.1113E-3	-9.36525E+0	22.7100E+0	4.59722E-12	68.7569E-15	-72.1075E-12	-10.1231E-3	-9.61674E+0	22.8831E+0	4.53852E-12	184.233E-15
-12.7500E-3	-72.7656E-12	-10.3643E-3	-9.04852E+0	23.0298E+0	4.64340E-12	-131.770E-15	-73.9028E-12	-10.3523E-3	-9.32751E+0	22.7743E+0	4.54459E-12	22.6531E-15
-13.0000E-3	-74.6293E-12	-10.6012E-3	-9.68291E+0	22.7093E+0	4.52600E-12	5.67723E-15	-75.7930E-12	-10.6074E-3	-9.22140E+0	22.9226E+0	4.63870E-12	1.66031E-15
-13.2500E-3	-76.4913E-12	-10.8525E-3	-9.55562E+0	22.7861E+0	4.61818E-12	-24.2451E-15	-77.5793E-12	-10.8458E-3	-8.87930E+0	22.8029E+0	4.63129E-12	-73.1992E-15
-13.5000E-3	-78.3579E-12	-11.0968E-3	-9.42776E+0	22.7244E+0	4.59840E-12	-148.305E-15	-79.4858E-12	-11.1074E-3	-9.06985E+0	23.0393E+0	4.64010E-12	14.5704E-15
-13.7500E-3	-80.2256E-12	-11.3632E-3	-9.23943E+0	22.8299E+0	4.50666E-12	49.3248E-15	-81.4267E-12	-11.3637E-3	-9.39229E+0	23.2439E+0	4.58920E-12	-53.1231E-15
-14.0000E-3	-82.0659E-12	-11.6219E-3	-9.28096E+0	22.8976E+0	4.61231E-12	-107.798E-15	-83.2098E-12	-11.6178E-3	-9.39033E+0	23.0863E+0	4.55189E-12	46.5473E-15
-14.2500E-3	-83.9143E-12	-11.8831E-3	-9.28134E+0	22.8469E+0	4.52146E-12	43.0503E-15	-85.1875E-12	-11.8836E-3	-9.46689E+0	23.4520E+0	4.68958E-12	-67.2865E-15
-14.5000E-3	-85.7787E-12	-12.1180E-3	-9.42707E+0	23.0950E+0	4.68333E-12	61.4809E-15	-86.9343E-12	-12.1309E-3	-9.22620E+0	23.4625E+0	4.66610E-12	-24.7993E-15
-14.7500E-3	-87.6492E-12	-12.3584E-3	-9.21267E+0	23.0233E+0	4.67666E-12	-40.7515E-15	-88.7683E-12	-12.3645E-3	-9.67995E+0	23.4433E+0	4.76172E-12	103.106E-15
-15.0000E-3	-89.6489E-12	-12.6203E-3	-9.94551E+0	23.1862E+0	4.72445E-12	-89.7592E-15	-90.8787E-12	-12.6179E-3	-9.28046E+0	22.9397E+0	4.57127E-12	18.1783E-15
-15.2500E-3	-91.5736E-12	-12.8545E-3	-9.56756E+0	23.1827E+0	4.66459E-12	200.438E-15	-92.7020E-12	-12.8682E-3	-8.78448E+0	23.5815E+0	4.63080E-12	-2.27357E-15
-15.5000E-3	-93.5281E-12	-13.0961E-3	-9.63265E+0	23.6402E+0	4.69261E-12	-16.0571E-15	-94.7229E-12	-13.0953E-3	-9.46065E+0	23.7905E+0	4.77187E-12	-11.9965E-15
-15.7500E-3	-95.2863E-12	-13.3392E-3	-9.05309E+0	23.4198E+0	4.66673E-12	-84.1441E-15	-96.6447E-12	-13.3484E-3	-9.37279E+0	23.9753E+0	4.81796E-12	-12.9484E-15
-16.0000E-3	-97.1581E-12	-13.5850E-3	-8.98666E+0	24.0149E+0	4.74148E-12	-216.939E-15	-98.4958E-12	-13.5777E-3	-9.85089E+0	24.0055E+0	4.83649E-12	90.7039E-15
-16.2500E-3	-99.1889E-12	-13.8476E-3	-9.23898E+0	23.3081E+0	4.79604E-12	110.014E-15	-100.401E-12	-13.8438E-3	-9.15645E+0	24.1532E+0	4.74207E-12	-47.1516E-15
-16.5000E-3	-101.202E-12	-14.0998E-3	-9.33810E+0	23.9964E+0	4.86776E-12	6.66090E-15	-102.355E-12	-14.0947E-3	-9.03142E+0	24.0848E+0	4.76128E-12	32.1160E-15
-16.7500E-3	-103.161E-12	-14.3414E-3	-9.32740E+0	23.9442E+0	4.71085E-12	53.7558E-15	-104.187E-12	-14.3493E-3	-9.29341E+0	24.2625E+0	4.84134E-12	-26.0261E-15
-17.0000E-3	-105.056E-12	-14.5849E-3	-9.28154E+0	23.9634E+0	4.76580E-12	126.933E-15	-106.252E-12	-14.5822E-3	-9.15222E+0	24.4563E+0	4.82207E-12	-12.8672E-15
-17.2500E-3	-106.812E-12	-14.8181E-3	-9.49598E+0	24.1071E+0	4.79901E-12	169.055E-15	-108.130E-12	-14.8174E-3	-9.46831E+0	24.2187E+0	4.78421E-12	-52.5711E-15
-17.5000E-3	-108.895E-12	-15.0714E-3	-9.24301E+0	24.4255E+0	4.79495E-12	-91.6596E-15	-110.057E-12	-15.0683E-3	-9.48973E+0	24.3723E+0	4.89750E-12	-47.9159E-15
-17.7500E-3	-110.773E-12	-15.3172E-3	-9.06773E+0	24.3812E+0	4.80318E-12	66.0284E-15	-111.979E-12	-15.3218E-3	-9.16577E+0	24.7250E+0	4.88601E-12	-90.5769E-15
-18.0000E-3	-112.788E-12	-15.5520E-3	-9.20789E+0	24.4992E+0	4.79491E-12	-109.951E-15	-113.984E-12	-15.5541E-3	-9.15542E+0	25.2484E+0	4.92839E-12	33.0045E-15
-18.2500E-3	-114.901E-12	-15.7954E-3	-9.22766E+0	24.6080E+0	4.77241E-12	169.496E-15	-116.049E-12	-15.8031E-3	-9.05023E+0	25.0917E+0	4.92044E-12	-156.454E-15
-18.5000E-3	-116.684E-12	-16.0414E-3	-9.47407E+0	24.4372E+0	4.84871E-12	-6.31076E-15	-118.067E-12	-16.0437E-3	-9.54241E+0	24.9905E+0	4.95723E-12	32.5421E-15
-18.7500E-3	-118.753E-12	-16.2963E-3	-9.22872E+0	24.7186E+0	4.89985E-12	-60.7768E-15	-120.081E-12	-16.3021E-3	-9.96798E+0	24.8194E+0	4.97722E-12	149.982E-15
-19.0000E-3	-120.543E-12	-16.5558E-3	-9.25135E+0	25.1115E+0	5.01269E-12	-14.3463E-15	-122.039E-12	-16.5544E-3	-9.73426E+0	25.3266E+0	4.98087E-12	1.02501E-15
-19.2500E-3	-122.726E-12	-16.7968E-3	-9.48745E+0	24.8166E+0	4.93487E-12	-154.445E-15	-123.949E-12	-16.8059E-3	-9.59946E+0	25.1943E+0	5.00397E-12	-135.009E-15
-19.5000E-3	-124.820E-12	-17.0509E-3	-9.53471E+0	25.1392E+0	5.02243E-12	87.7083E-15	-126.052E-12	-17.0532E-3	-9.07464E+0	25.1953E+0	5.07421E-12	-3.06952E-15
-19.7500E-3	-126.893E-12	-17.3115E-3	-9.10860E+0	24.8892E+0	4.94985E-12	38.0041E-15	-128.243E-12	-17.3195E-3	-9.16572E+0	25.3876E+0	5.04335E-12	248.806E-15
-20.0000E-3	-129.246E-12	-17.5975E-3	-9.34910E+0	25.7513E+0	5.05565E-12	22.6002E-15	-130.769E-12	-17.5991E-3	-9.05197E+0	25.3206E+0	5.01488E-12	-242.414E-15
-20.2500E-3	-131.436E-12	-17.8429E-3	-9.14325E+0	25.3904E+0	5.02811E-12	96.4162E-15	-132.694E-12	-17.8413E-3	-9.22460E+0	25.7084E+0	5.04034E-12	51.3880E-15
-20.5000E-3	-133.457E-12	-18.0769E-3	-9.38260E+0	25.0988E+0	5.04858E-12	6.16116E-15	-134.943E-12	-18.0928E-3	-9.85000E+0	25.8338E+0	5.22350E-12	-8.98752E-15
-20.7500E-3	-135.496E-12	-18.3299E-3	-9.80876E+0	25.4161E+0	5.12891E-12	-211.096E-15	-136.845E-12	-18.3271E-3	-9.23095E+0	25.9124E+0	5.18150E-12	124.500E-15
-21.0000E-3	-137.521E-12	-18.5816E-3	-9.11383E+0	25.4551E+0	5.02385E-12	-95.9186E-15	-139.060E-12	-18.5748E-3	-9.46893E+0	25.4553E+0	5.13289E-12	-140.236E-15
-21.2500E-3	-139.590E-12	-18.8360E-3	-9.29733E+0	25.8850E+0	5.09026E-12	42.7604E-15	-141.267E-12	-18.8395E-3	-9.18903E+0	26.0560E+0	5.10363E-12	-116.111E-15
-21.5000E-3	-141.593E-12	-19.0833E-3	-9.63847E+0	25.5980E+0	5.10709E-12	-126.342E-15	-143.207E-12	-19.0904E-3	-9.64949E+0	25.7775E+0	5.14534E-12	97.8089E-15
-21.7500E-3	-143.689E-12	-19.3424E-3	-9.14212E+0	25.8280E+0	5.10239E-12	51.0174E-15	-145.223E-12	-19.3465E-3	-9.41862E+0	25.4574E+0	5.11692E-12	6.56946E-15
-22.0000E-3	-145.890E-12	-19.5889E-3	-8.78783E+0	25.7254E+0	5.09979E-12	121.495E-15	-147.193E-12	-19.5895E-3	-9.22362E+0	25.8491E+0	5.13913E-12	-146.649E-15
-22.2500E-3	-147.974E-12	-19.8450E-3	-9.43945E+0	25.9517E+0	5.19268E-12	91.1673E-15	-149.414E-12	-19.8376E-3	-9.14976E+0	26.2155E+0	5.29436E-12	18.3076E-15
-22.5000E-3	-150.068E-12	-20.0757E-3	-9.35221E+0	25.8188E+0	5.17613E-12	-32.5980E-15	-151.595E-12	-20.0775E-3	-9.18476E+0	26.2173E+0	5.27528E-12	51.0695E-15
-22.7500E-3	-152.172E-12	-20.3119E-3	-9.51825E+0	26.2190E+0	5.24231E-12	-168.168E-15	-153.569E-12	-20.3231E-3	-8.77483E+0	25.9171E+0	5.18258E-12	-36.9400E-15
-23.0000E-3	-154.323E-12	-20.5673E-3	-9.50684E+0	25.9599E+0	5.32551E-12	-54.9001E-15	-155.814E-12	-20.5715E-3	-9.38897E+0	26.2960E+0	5.29422E-12	-35.6484E-15
-23.2500E-3	-156.223E-12	-20.8226E-3	-9.58602E+0	26.1818E+0	5.26884E-12	2.46140E-15	-157.772E-12	-20.8272E-3	-9.21417E+0	26.2029E+0	5.37292E-12	-181.031E-15
-23.5000E-3	-158.441E-12	-21.0864E-3	-9.41727E+0	25.9357E+0	5.29474E-12	117.155E-15	-160.224E-12	-21.0818E-3	-9.13068E+0	26.1424E+0	5.17118E-12	-71.1724E-15
-23.7500E-3	-160.757E-12	-21.3407E-3	-9.29205E+0	25.9069E+0	5.27738E-12	121.156E-15	-162.071E-12	-21.3467E-3	-9.13634E+0	26.1762E+0	5.14308E-12	105.786E-15
-24.0000E-3	-162.944E-12	-21.6030E-3	-9.76995E+0	26.3657E+0	5.25339E-12	156.316E-15	-164.298E-12	-21.6015E-3	-9.22635E+0	26.5195E+0	5.16349E-12	-35.2545E-15
-24.2500E-3	-165.032E-12	-21.8473E-3	-9.19216E+0	26.2290E+0	5.21491E-12	-99.0156E-15	-166.616E-12	-21.8510E-3	-9.10835E+0	26.9309E+0	5.36760E-12	-111.676E-15
-24.5000E-3	-167.050E-12	-22.0750E-3	-9.00655E+0	26.0798E+0	5.10354E-12	-2.04460E-15	-168.458E-12	-22.0855E-3	-9.33673E+0	26.3627E+0	5.25914E-12	54.7584E-15
-24.7500E-3	-169.389E-12	-22.3524E-3	-9.45033E+0	26.3400E+0	5.22020E-12	-60.5519E-15	-170.727E-12	-22.3409E-3	-9.60399E+0	26.2965E+0	5.31312E-12	-69.5677E-15
-25.0000E-3	-171.349E-12	-22.5812E-3	-9.45806E+0	26.3858E+0	5.33637E-12	-29.9926E-15	-172.862E-12	-22.5869E-3	-9.28397E+0	26.6580E+0	5.24998E-12	152.419E-15
-25.2500E-3	-173.309E-12	-22.8279E-3	-9.15879E+0	26.5972E+0	5.24858E-12	33.7373E-15	-174.983E-12	-22.8313E-3	-9.33287E+0	26.5622E+0	5.37597E-12	-41.5646E-15
-25.5000E-3	-175.643E-12	-23.0672E-3	-9.59293E+0	26.5480E+0	5.28041E-12	224.369E-15	-177.235E-12	-23.0715E-3	-9.92978E+0	26.4700E+0	5.37236E-12	-10.8177E-15
-25.7500E-3	-178.121E-12	-23.3159E-3	-9.22682E+0	26.4324E+0	5.25480E-12	-154.082E-15	-179.431E-12	-23.3218E-3	-9.27611E+0	26.7937E+0	5.28150E-12	62.0555E-15
-26.0000E-3	-179.969E-12	-23.5775E-3	-9.07864E+0	26.6259E+0	5.32213E-12	-95.0195E-15	-181.657E-12	-23.5802E-3	-8.96348E+0	26.5462E+0	5.26387E-12	-37.5642E-15
-26.2500E-3	-181.934E-12	-23.8275E-3	-9.36015E+0	26.6348E+0	5.26988E-12	13.8700E-15	-183.852E-12	-23.8362E-3	-9.31876E+0	26.4693E+0	5.21921E-12	-50.2416E-15
-26.5000E-3	-184.238E-12	-24.0861E-3	-8.86712E+0	26.3293E+0	5.21568E-12	-18.8958E-15	-185.863E-12	-24.0897E-3	-9.09353E+0	27.1732E+0	5.33864E-12	40.2096E-15
-26.7500E-3	-186.628E-12	-24.3257E-3	-8.96414E+0	26.8905E+0	5.38210E-12	50.5748E-15	-187.886E-12	-24.3262E-3	-9.01952E+0	26.5985E+0	5.21309E-12	125.537E-15
-27.0000E-3	-188.532E-12	-24.5669E-3	-9.37906E+0	26.8140E+0	5.29314E-12	110.573E-15	-189.771E-12	-24.5765E-3	-9.18104E+0	26.8555E+0	5.18794E-12	7.15758E-15
-27.2500E-3	-190.896E-12	-24.8255E-3	-9.36963E+0	26.9418E+0	5.22663E-12	161.184E-15	-192.138E-12	-24.8187E-3	-9.16574E+0	27.2585E+0	5.40032E-12	218.689E-15
-27.5000E-3	-193.088E-12	-25.0690E-3	-9.67494E+0	26.9752E+0	5.35993E-12	222.886E-15	-194.513E-12	-25.0695E-3	-9.36403E+0	26.7996E+0	5.27951E-12	118.012E-15
-27.7500E-3	-195.051E-12	-25.3028E-3	-9.40886E+0	26.9868E+0	5.37565E-12	14.4329E-15	-196.660E-12	-25.2998E-3	-9.22869E+0	27.1596E+0	5.30978E-12	-67.6962E-15
-28.0000E-3	-197.188E-12	-25.5481E-3	-9.09937E+0	27.0781E+0	5.46650E-12	39.6656E-15	-198.747E-12	-25.5526E-3	-9.79383E+0	27.2761E+0	5.42288E-12	-191.292E-15
-28.2500E-3	-199.401E-12	-25.7995E-3	-9.34500E+0	26.3233E+0	5.14301E-12	-65.4424E-15	-201.194E-12	-25.7943E-3	-9.11333E+0	26.9448E+0	5.27132E-12	72.0647E-15
-28.5000E-3	-201.516E-12	-26.0578E-3	-9.23159E+0	26.6777E+0	5.31563E-12	261.402E-15	-203.174E-12	-26.0572E-3	-9.26396E+0	26.9855E+0	5.36544E-12	79.6650E-15
-28.7500E-3	-203.522E-12	-26.3081E-3	-9.16973E+0	27.0958E+0	5.39628E-12	12.8195E-15	-205.448E-12	-26.3117E-3	-9.40555E+0	26.8941E+0	5.38034E-12	-21.8265E-15
-29.0000E-3	-205.872E-12	-26.5634E-3	-9.68059E+0	26.5088E+0	5.22564E-12	-123.890E-15	-207.772E-12	-26.5632E-3	-9.34394E+0	27.4445E+0	5.44591E-12	-144.231E-15
-29.2500E-3	-208.155E-12	-26.8037E-3	-9.65299E+0	26.7072E+0	5.29467E-12	-88.8723E-15	-209.598E-12	-26.8140E-3	-9.21716E+0	26.8650E+0	5.30610E-12	-157.605E-15
-29.5000E-3	-210.201E-12	-27.0335E-3	-9.40501E+0	27.0066E+0	5.33714E-12	139.024E-15	-211.572E-12	-27.0276E-3	-9.22558E+0	27.5210E+0	5.42121E-12	-4.91623E-15
-29.7500E-3	-212.383E-12	-27.2921E-3	-9.54165E+0	27.0129E+0	5.35566E-12	46.0778E-15	-214.171E-12	-27.2916E-3	-9.39684E+0	27.2666E+0	5.38996E-12	41.2543E-15
-30.0000E-3	-214.747E-12	-27.5285E-3	-9.54546E+0	26.9219E+0	5.48154E-12	-203.585E-15	-216.289E-12	-27.5260E-3	-9.20829E+0	27.1332E+0	5.45898E-12	30.6059E-15
-30.2500E-3	-217.130E-12	-27.7753E-3	-9.24558E+0	27.1964E+0	5.38200E-12	-35.4049E-15	-218.442E-12	-27.7749E-3	-9.67056E+0	27.5114E+0	5.42990E-12	-134.122E-15
-30.5000E-3	-219.166E-12	-28.0074E-3	-9.40220E+0	27.0511E+0	5.28844E-12	215.144E-15	-220.575E-12	-28.0110E-3	-8.89834E+0	26.9960E+0	5.34053E-12	-120.787E-15
-30.7500E-3	-221.099E-12	-28.2558E-3	-9.39764E+0	26.8845E+0	5.37721E-12	-166.540E-15	-222.643E-12	-28.2541E-3	-9.43928E+0	26.7625E+0	5.38526E-12	121.686E-15
-31.0000E-3	-223.320E-12	-28.5060E-3	-9.23683E+0	27.3763E+0	5.35359E-12	213.697E-15	-224.885E-12	-28.5106E-3	-9.52109E+0	27.0031E+0	5.34192E-12	-105.526E-15
-31.2500E-3	-225.836E-12	-28.7639E-3	-9.15584E+0	27.0982E+0	5.44393E-12	73.2363E-15	-226.962E-12	-28.7629E-3	-9.50699E+0	26.9024E+0	5.31741E-12	93.5393E-15
-31.5000E-3	-228.200E-12	-29.0072E-3	-9.07107E+0	27.0470E+0	5.30603E-12	-34.2554E-15	-229.290E-12	-29.0003E-3	-9.49849E+0	26.8134E+0	5.33909E-12	-6.45036E-15
-31.7500E-3	-230.253E-12	-29.2618E-3	-9.07171E+0	27.1730E+0	5.39345E-12	-196.991E-15	-231.223E-12	-29.2567E-3	-9.32293E+0	26.9832E+0	5.34094E-12	86.6171E-15
-32.0000E-3	-232.165E-12	-29.4945E-3	-9.40521E+0	27.0728E+0	5.41762E-12	214.420E-15	-233.633E-12	-29.4941E-3	-9.42908E+0	27.0942E+0	5.36224E-12	260.029E-15
-32.2500E-3	-234.365E-12	-29.7450E-3	-9.28797E+0	27.0430E+0	5.29094E-12	-12.2290E-15	-235.749E-12	-29.7462E-3	-9.25770E+0	27.3282E+0	5.38212E-12	-315.928E-15
-32.5000E-3	-236.378E-12	-29.9851E-3	-9.01286E+0	27.5459E+0	5.53819E-12	92.0399E-15	-238.176E-12	-29.9869E-3	-9.26078E+0	27.1165E+0	5.46791E-12	-281.824E-15
-32.7500E-3	-238.922E-12	-30.2401E-3	-9.22549E+0	26.8357E+0	5.24947E-12	-126.379E-15	-240.519E-12	-30.2384E-3	-8.92367E+0	27.0957E+0	5.49321E-12	-140.546E-15
-33.0000E-3	-241.073E-12	-30.4665E-3	-9.32364E+0	27.2152E+0	5.37421E-12	36.1941E-15	-242.594E-12	-30.4701E-3	-9.41979E+0	27.4368E+0	5.56460E-12	128.249E-15
-33.2500E-3	-243.319E-12	-30.7260E-3	-9.33027E+0	26.5699E+0	5.33449E-12	-153.312E-15	-244.645E-12	-30.7277E-3	-9.19728E+0	27.2584E+0	5.46778E-12	42.0409E-15
-33.5000E-3	-245.242E-12	-30.9963E-3	-9.58164E+0	26.9649E+0	5.31203E-12	-58.9446E-15	-246.633E-12	-30.9958E-3	-9.26125E+0	27.3051E+0	5.50900E-12	-43.2818E-15
-33.7500E-3	-247.215E-12	-31.2443E-3	-9.31069E+0	26.6368E+0	5.17987E-12	8.60448E-15	-249.034E-12	-31.2517E-3	-9.17972E+0	27.3776E+0	5.43655E-12	265.223E-15
-34.0000E-3	-249.702E-12	-31.5017E-3	-9.30666E+0	26.8024E+0	5.46446E-12	152.671E-15	-251.472E-12	-31.5042E-3	-9.22505E+0	26.8671E+0	5.43395E-12	-56.4967E-15
-34.2500E-3	-251.581E-12	-31.7439E-3	-9.09659E+0	26.8447E+0	5.26858E-12	-18.6742E-15	-253.541E-12	-31.7465E-3	-9.07983E+0	27.4429E+0	5.47977E-12	-27.9636E-15
-34.5000E-3	-254.077E-12	-32.0153E-3	-9.27921E+0	27.1795E+0	5.30901E-12	-90.8012E-15	-255.989E-12	-32.0029E-3	-9.18594E+0	27.3092E+0	5.47064E-12	-107.213E-15
-34.7500E-3	-256.341E-12	-32.2368E-3	-9.37123E+0	26.9332E+0	5.36435E-12	7.75214E-15	-258.091E-12	-32.2469E-3	-9.52439E+0	27.2608E+0	5.38729E-12	53.4281E-15
-35.0000E-3	-258.895E-12	-32.4827E-3	-9.22315E+0	26.8662E+0	5.37288E-12	90.7387E-15	-259.947E-12	-32.4858E-3	-9.41452E+0	26.7605E+0	5.26782E-12	-54.9971E-15
-35.2500E-3	-260.881E-12	-32.7351E-3	-9.07942E+0	26.9660E+0	5.48024E-12	29.1376E-15	-261.907E-12	-32.7276E-3	-9.83232E+0	27.4594E+0	5.45760E-12	288.127E-15
-35.5000E-3	-262.854E-12	-32.9707E-3	-9.16371E+0	26.9262E+0	5.37902E-12	-140.879E-15	-264.551E-12	-32.9699E-3	-9.32600E+0	27.5033E+0	5.41096E-12	96.7187E-15
-35.7500E-3	-264.928E-12	-33.2254E-3	-8.91027E+0	27.1328E+0	5.40875E-12	41.4762E-15	-266.445E-12	-33.2205E-3	-9.45526E+0	26.8730E+0	5.60053E-12	-183.618E-15
-36.0000E-3	-267.265E-12	-33.4792E-3	-9.36589E+0	27.3559E+0	5.37996E-12	-238.530E-15	-268.565E-12	-33.4825E-3	-9.18525E+0	26.9903E+0	5.47688E-12	177.596E-15
-36.2500E-3	-269.521E-12	-33.7283E-3	-9.43528E+0	27.0443E+0	5.32933E-12	-86.7280E-15	-270.925E-12	-33.7246E-3	-9.26660E+0	27.0476E+0	5.43439E-12	101.164E-15
-36.5000E-3	-271.699E-12	-33.9788E-3	-9.25675E+0	27.3043E+0	5.28763E-12	35.5509E-15	-273.101E-12	-33.9742E-3	-9.23067E+0	26.9707E+0	5.54667E-12	-59.8318E-15
-36.7500E-3	-273.871E-12	-34.2004E-3	-9.64800E+0	27.0723E+0	5.58134E-12	-77.5125E-15	-274.976E-12	-34.2063E-3	-9.22062E+0	27.4080E+0	5.62534E-12	29.8946E-15
-37.0000E-3	-276.071E-12	-34.4595E-3	-9.09717E+0	26.7931E+0	5.44195E-12	-228.263E-15	-277.436E-12	-34.4662E-3	-9.28188E+0	27.3215E+0	5.47315E-12	-73.2846E-15
-37.2500E-3	-278.424E-12	-34.6942E-3	-9.54283E+0	26.6867E+0	5.47328E-12	45.2295E-15	-279.537E-12	-34.6952E-3	-9.40564E+0	27.0543E+0	5.45169E-12	47.7333E-15
-37.5000E-3	-280.426E-12	-34.9493E-3	-9.68180E+0	26.7618E+0	5.38935E-12	174.457E-15	-281.430E-12	-34.9487E-3	-9.54752E+0	26.6415E+0	5.54879E-12	-78.2811E-15
-37.7500E-3	-282.613E-12	-35.1756E-3	-9.10506E+0	26.9585E+0	5.47676E-12	14.4183E-15	-283.671E-12	-35.1796E-3	-9.22334E+0	26.4532E+0	5.41094E-12	8.12806E-15
-38.0000E-3	-284.723E-12	-35.4328E-3	-9.78376E+0	26.7147E+0	5.33280E-12	90.3663E-15	-285.666E-12	-35.4266E-3	-9.14986E+0	26.5802E+0	5.52193E-12	191.892E-15
-38.2500E-3	-286.673E-12	-35.6686E-3	-9.14081E+0	26.1722E+0	5.31979E-12	139.835E-15	-288.042E-12	-35.6692E-3	-9.33383E+0	26.5645E+0	5.31110E-12	-14.5761E-15
-38.5000E-3	-288.750E-12	-35.9284E-3	-8.87232E+0	26.8319E+0	5.53971E-12	-215.120E-15	-290.310E-12	-35.9398E-3	-9.43674E+0	27.0535E+0	5.43534E-12	-146.706E-15
-38.7500E-3	-290.782E-12	-36.1836E-3	-9.29832E+0	26.6016E+0	5.27994E-12	202.724E-15	-292.446E-12	-36.1817E-3	-9.35568E+0	26.6809E+0	5.46363E-12	1.54740E-15
-39.0000E-3	-292.802E-12	-36.4326E-3	-9.39910E+0	26.9045E+0	5.42392E-12	-36.5991E-15	-294.543E-12	-36.4361E-3	-9.31477E+0	26.7843E+0	5.40548E-12	168.078E-15
-39.2500E-3	-294.952E-12	-36.6320E-3	-9.45584E+0	27.2652E+0	5.38947E-12	-61.0846E-15	-296.337E-12	-36.6348E-3	-9.32682E+0	26.3973E+0	5.43933E-12	-239.476E-15
-39.5000E-3	-298.229E-12	-36.9677E-3	-9.07929E+0	26.3148E+0	5.27861E-12	-108.544E-15	-298.790E-12	-36.9590E-3	-9.39864E+0	26.4090E+0	5.50236E-12	15.0866E-15
-39.7500E-3	-300.384E-12	-37.1952E-3	-9.17758E+0	26.8170E+0	5.36057E-12	211.029E-15	-300.959E-12	-37.1976E-3	-9.35421E+0	26.7915E+0	5.52988E-12	1.63354E-15
-40.0000E-3	-302.469E-12	-37.4431E-3	-9.08367E+0	26.0739E+0	5.33305E-12	47.0352E-15	-303.319E-12	-37.4353E-3	-9.37162E+0	26.3332E+0	5.54262E-12	203.164E-15
-40.2500E-3	-304.193E-12	-37.6841E-3	-9.24770E+0	26.1040E+0	5.25816E-12	-112.102E-15	-305.156E-12	-37.6825E-3	-9.07311E+0	26.5253E+0	5.59369E-12	-142.211E-15
-40.5000E-3	-306.502E-12	-37.9191E-3	-9.03274E+0	26.4108E+0	5.44983E-12	160.151E-15	-307.430E-12	-37.9189E-3	-9.46834E+0	26.1161E+0	5.42707E-12	82.3758E-15
-40.7500E-3	-308.708E-12	-38.1694E-3	-9.21725E+0	26.6378E+0	5.31781E-12	288.064E-15	-309.524E-12	-38.1772E-3	-9.61547E+0	26.0485E+0	5.52260E-12	-94.7772E-15
-41.0000E-3	-310.790E-12	-38.4209E-3	-9.20039E+0	25.8566E+0	5.29308E-12	-13.8477E-15	-312.186E-12	-38.4269E-3	-9.54668E+0	25.8066E+0	5.21199E-12	117.312E-15
-41.2500E-3	-313.286E-12	-38.6763E-3	-9.29161E+0	26.0703E+0	5.39449E-12	-104.734E-15	-314.347E-12	-38.6696E-3	-9.40300E+0	26.5759E+0	5.23427E-12	-121.195E-15
-41.5000E-3	-315.239E-12	-38.9101E-3	-9.77927E+0	26.1845E+0	5.32501E-12	150.502E-15	-315.939E-12	-38.9156E-3	-9.58459E+0	26.0049E+0	5.37289E-12	159.949E-15
-41.7500E-3	-317.609E-12	-39.1588E-3	-9.14083E+0	26.9500E+0	5.44364E-12	-161.418E-15	-318.139E-12	-39.1491E-3	-9.09118E+0	25.8761E+0	5.20593E-12	152.663E-15
-42.0000E-3	-319.259E-12	-39.3869E-3	-9.28417E+0	26.3334E+0	5.39487E-12	-99.4488E-15	-320.015E-12	-39.3903E-3	-9.49553E+0	26.2454E+0	5.29731E-12	199.534E-15
-42.2500E-3	-321.520E-12	-39.6349E-3	-9.15588E+0	26.0869E+0	5.33835E-12	16.8706E-15	-321.940E-12	-39.6318E-3	-9.48426E+0	26.4351E+0	5.26265E-12	-134.268E-15
-42.5000E-3	-323.684E-12	-39.8712E-3	-9.44371E+0	26.1419E+0	5.52678E-12	124.712E-15	-324.107E-12	-39.8722E-3	-9.18899E+0	26.1580E+0	5.42283E-12	-52.7215E-15
-42.7500E-3	-325.544E-12	-40.1174E-3	-9.80369E+0	26.0550E+0	5.49073E-12	-173.125E-15	-326.466E-12	-40.1183E-3	-9.10630E+0	26.0642E+0	5.34376E-12	108.993E-15
-43.0000E-3	-327.564E-12	-40.3675E-3	-9.59036E+0	26.2877E+0	5.49881E-12	-168.359E-15	-328.414E-12	-40.3693E-3	-9.76426E+0	25.8966E+0	5.26925E-12	83.6669E-15
-43.2500E-3	-329.638E-12	-40.6200E-3	-9.06722E+0	26.1779E+0	5.50894E-12	-121.111E-15	-330.655E-12	-40.6162E-3	-9.36082E+0	25.6586E+0	5.21478E-12	-332.238E-15
-43.5000E-3	-332.261E-12	-40.8729E-3	-9.26849E+0	25.8323E+0	5.43984E-12	-73.6985E-15	-333.056E-12	-40.8790E-3	-9.44495E+0	26.0642E+0	5.33258E-12	429.400E-15
-43.7500E-3	-333.918E-12	-41.1138E-3	-9.49586E+0	26.0152E+0	5.36263E-12	447.637E-15	-334.586E-12	-41.1215E-3	-9.16390E+0	25.9159E+0	5.35752E-12	36.2577E-15
-44.0000E-3	-336.131E-12	-41.3722E-3	-9.47582E+0	25.7991E+0	5.46117E-12	-97.7395E-15	-337.267E-12	-41.3642E-3	-9.33761E+0	26.5467E+0	5.26621E-12	72.5988E-15
-44.2500E-3	-338.551E-12	-41.6135E-3	-9.50628E+0	25.8498E+0	5.33462E-12	-312.185E-15	-339.395E-12	-41.6160E-3	-9.09537E+0	25.7967E+0	5.32207E-12	-98.8698E-15
-44.5000E-3	-340.819E-12	-41.8771E-3	-9.29320E+0	25.6123E+0	5.34901E-12	-46.5729E-15	-341.135E-12	-41.8605E-3	-9.07209E+0	26.3881E+0	5.40448E-12	23.8662E-15
-44.7500E-3	-342.675E-12	-42.0927E-3	-9.23193E+0	26.3573E+0	5.32972E-12	429.372E-15	-343.339E-12	-42.1047E-3	-9.34294E+0	26.1374E+0	5.33660E-12	-86.1849E-15
-45.0000E-3	-344.279E-12	-42.3550E-3	-9.66000E+0	26.4775E+0	5.40067E-12	-21.4988E-15	-344.980E-12	-42.3395E-3	-9.26215E+0	25.8183E+0	5.12328E-12	143.445E-15
-45.2500E-3	-346.896E-12	-42.5948E-3	-9.36235E+0	26.1382E+0	5.61499E-12	-96.0821E-15	-346.973E-12	-42.5954E-3	-9.06309E+0	26.0110E+0	5.32205E-12	-60.1997E-15
-45.5000E-3	-349.213E-12	-42.8431E-3	-9.28695E+0	25.7893E+0	5.43728E-12	363.902E-15	-349.560E-12	-42.8442E-3	-9.37990E+0	26.0462E+0	5.26586E-12	-110.852E-15
-45.7500E-3	-351.276E-12	-43.1039E-3	-9.36999E+0	25.4192E+0	5.19919E-12	188.099E-15	-351.407E-12	-43.0932E-3	-9.60168E+0	26.1019E+0	5.29737E-12	-99.3423E-15
-46.0000E-3	-353.380E-12	-43.3627E-3	-9.33018E+0	25.4515E+0	5.24448E-12	176.004E-15	-353.561E-12	-43.3562E-3	-9.69019E+0	25.6791E+0	5.23471E-12	-38.1413E-15
-46.2500E-3	-355.327E-12	-43.6119E-3	-9.20994E+0	25.9617E+0	5.35736E-12	-116.884E-15	-355.538E-12	-43.5991E-3	-9.72593E+0	25.7475E+0	5.39514E-12	89.6533E-15
-46.5000E-3	-357.331E-12	-43.8402E-3	-9.38785E+0	25.4723E+0	5.26298E-12	-333.087E-15	-357.520E-12	-43.8471E-3	-9.56766E+0	25.9169E+0	5.34033E-12	250.252E-15
-46.7500E-3	-359.414E-12	-44.1093E-3	-9.56308E+0	25.6235E+0	5.34819E-12	139.457E-15	-359.753E-12	-44.0991E-3	-9.63298E+0	25.4313E+0	5.09044E-12	96.1344E-15
-47.0000E-3	-361.422E-12	-44.3427E-3	-9.14662E+0	25.5256E+0	5.25784E-12	-51.2249E-15	-362.162E-12	-44.3545E-3	-9.33883E+0	26.0650E+0	5.34992E-12	-302.351E-15
-47.2500E-3	-363.731E-12	-44.5831E-3	-9.19003E+0	25.4776E+0	5.34302E-12	308.615E-15	-363.944E-12	-44.5781E-3	-9.60649E+0	25.8941E+0	5.39052E-12	233.643E-15
-47.5000E-3	-366.081E-12	-44.8296E-3	-9.16618E+0	25.8633E+0	5.56923E-12	-366.208E-15	-366.068E-12	-44.8330E-3	-9.16495E+0	25.7996E+0	5.11976E-12	-226.355E-15
-47.7500E-3	-367.505E-12	-45.0695E-3	-9.30184E+0	25.7413E+0	5.39309E-12	102.832E-15	-368.297E-12	-45.0650E-3	-9.40723E+0	25.7000E+0	5.30961E-12	-23.4705E-15
-48.0000E-3	-369.520E-12	-45.3236E-3	-9.65666E+0	25.7342E+0	5.22422E-12	-7.78720E-15	-370.351E-12	-45.3198E-3	-8.66004E+0	25.6769E+0	5.27983E-12	89.9419E-15
-48.2500E-3	-371.968E-12	-45.5727E-3	-9.35042E+0	25.9232E+0	5.44214E-12	86.7065E-15	-371.861E-12	-45.5832E-3	-9.28889E+0	25.4931E+0	5.41070E-12	-67.7419E-15
-48.5000E-3	-373.811E-12	-45.8352E-3	-9.02180E+0	25.7208E+0	5.57806E-12	-161.037E-15	-373.977E-12	-45.8360E-3	-9.85388E+0	25.8540E+0	5.43512E-12	99.6873E-15
-48.7500E-3	-375.826E-12	-46.0844E-3	-9.46693E+0	25.5850E+0	5.24226E-12	-43.6690E-15	-376.158E-12	-46.0805E-3	-9.25344E+0	25.7768E+0	5.37751E-12	175.510E-15
-49.0000E-3	-378.109E-12	-46.2988E-3	-9.15606E+0	25.8412E+0	5.26748E-12	74.6097E-15	-377.813E-12	-46.2967E-3	-8.96588E+0	25.7289E+0	5.17102E-12	78.5311E-15
-49.2500E-3	-380.646E-12	-46.5710E-3	-9.07086E+0	25.7970E+0	5.23398E-12	315.386E-15	-380.462E-12	-46.5777E-3	-9.22526E+0	26.0137E+0	5.35761E-12	-51.7275E-15
-49.5000E-3	-382.592E-12	-46.8153E-3	-9.31495E+0	26.1715E+0	5.42633E-12	-152.992E-15	-382.408E-12	-46.8074E-3	-9.47221E+0	25.8965E+0	5.44413E-12	-252.707E-15
-49.7500E-3	-384.737E-12	-47.0476E-3	-9.20997E+0	25.5710E+0	5.19588E-12	194.501E-15	-384.578E-12	-47.0585E-3	-9.10165E+0	25.3422E+0	5.42101E-12	-360.184E-15
-50.0000E-3	-386.831E-12	-47.2967E-3	-9.10639E+0	25.7418E+0	5.24926E-12	-265.616E-15	-386.816E-12	-47.2924E-3	-9.80740E+0	26.0670E+0	5.39202E-12	473.889E-15
